the 0.690408 -1.159108 -0.271140 0.832254 0.083959 -0.297174 -0.439258 0.039721 -1.056844 -0.737418 0.862199 1.227497 -0.186223 -0.722357 -0.082204 0.414921 0.534903 -0.323757 0.362325 -1.313819 0.416585 0.459679 -0.467426 -0.043691 1.505276 -1.214419 -0.333990 0.371727 0.362370 -0.774525 0.265963 0.897548 -1.333640 -1.019745 -0.675354 0.624452 0.879726 0.104653 -0.811430 0.368585 -1.121862 -0.233655 -0.159894 0.806804 1.537702 -0.214800 2.026830 0.624554 1.987011 0.165362
data 0.219352 0.540747 1.008527 -0.253281 -0.261895 0.122100 0.255693 -0.075680 0.566328 -0.598296 -0.019078 -1.287972 -0.279071 -0.585930 0.470934 1.533176 0.309670 -0.413585 0.042231 -1.653995 -0.727361 0.857186 -1.653386 -0.083814 1.114365 -0.747873 -1.243228 -1.378358 0.960856 -0.593273 0.815407 0.687787 -0.948803 -0.649765 0.186047 -0.423967 -0.223548 0.773519 -0.654431 0.235852 0.082157 -1.329887 -1.395886 -0.370048 1.831565 -1.872247 1.323350 -0.146667 1.265403 -0.360623
x -0.661128 -0.603632 -0.532986 1.222685 0.328268 -1.432418 -1.440172 -0.159815 -1.489563 -0.818046 -0.511564 -0.737175 -0.294465 -1.068291 -0.350849 -0.014279 0.708460 0.210136 -0.400677 -0.465079 -0.030508 -1.642110 -0.666461 -0.875256 0.813936 -2.103336 -1.806248 0.280482 1.393712 -0.073374 -1.164026 0.860279 1.387942 -0.795945 -0.708330 0.750279 0.247614 0.331342 0.425628 -0.718474 0.179885 1.117231 0.195227 0.388853 0.769588 -0.259738 -1.260073 1.194322 1.573673 0.907582
computer 0.355308 0.022511 0.455303 0.045631 -0.166825 -0.348101 -0.228667 0.350303 0.480017 -0.785148 1.206733 0.330139 1.567231 -1.211528 0.321713 0.917488 0.839825 -0.617820 -0.613339 0.029119 -0.089423 0.002513 0.368443 -0.092066 0.316637 -1.433526 -0.050384 -0.718879 -0.009843 0.243318 0.519620 1.000887 -1.161955 -1.984292 -0.581701 0.120653 0.225963 1.740469 -1.306727 0.743552 -0.395339 -0.011530 -1.662061 0.783748 0.262448 0.034882 1.065506 -0.397281 0.545474 -0.838661
- 0.632470 0.822994 -0.879222 0.402877 -0.366157 -0.431795 -1.250244 0.923106 -0.066799 0.333782 -0.389262 1.446910 -0.187918 -2.281842 1.055415 0.897090 0.564878 -1.242635 0.772254 -1.213619 -0.158817 0.370991 0.126959 0.185192 0.619185 -0.543121 0.194753 -1.353672 1.689511 -0.325452 -0.544069 0.399475 -0.621115 -0.287648 -0.770200 -1.453976 0.949514 1.007025 -0.357270 -0.471847 0.073086 2.874537 0.974305 0.633031 0.663921 0.989611 0.241647 -0.616991 -0.083022 0.732106
in 0.272411 -0.609425 0.680110 0.630592 -0.840416 -0.148647 0.806785 -0.233478 -0.791362 -0.149118 1.053454 -0.528266 0.685724 -0.300949 -0.793179 1.257105 0.977448 0.025282 -0.627745 -1.653160 0.207748 0.284633 1.279842 0.667093 0.286054 -1.036349 0.170177 0.042666 1.074041 0.079157 0.616006 0.249544 0.004886 -1.098133 -0.605847 0.151665 0.756188 0.554513 -0.032866 0.480773 -0.158078 0.438958 -0.466009 1.562806 1.449760 -1.131909 1.576089 0.418180 1.611704 -0.026212
used 0.208383 -0.762674 0.740810 0.660303 0.104245 -0.299734 -0.007873 0.095319 0.637845 -0.048718 0.845264 0.182811 0.411669 -0.968420 0.037366 0.815709 1.503414 0.308079 -0.752779 -1.651060 -0.119612 1.562466 -0.145957 -0.299732 0.329522 -0.398806 -0.256678 -0.149400 -1.201818 -0.016908 0.893699 1.041490 -0.824542 -1.153576 -0.776685 0.072396 0.327896 -0.667650 -1.023293 -0.258386 -0.965117 -0.959009 -0.448245 1.498016 1.695245 -0.698799 0.266655 0.690459 1.110721 -0.521595
a 0.080512 -0.919661 -0.134138 -0.321651 0.622640 0.044501 -1.166976 0.323725 -0.226977 -0.121780 1.364447 -0.254117 -0.579126 -1.060689 -0.251069 0.865093 -0.009098 0.307150 1.057480 -2.244516 0.359800 -0.093615 -1.008718 -0.395049 0.455834 -1.010928 0.261251 0.051711 0.802694 -0.007002 -0.221260 0.753634 -0.627316 -1.216795 -0.540661 0.171984 0.623476 0.384734 -1.788582 -0.582064 0.554100 0.348140 -0.682853 1.196225 1.107950 0.885247 0.303137 -0.346634 0.531811 0.756706
theory 1.020020 0.975085 -0.327719 -0.531870 -0.747653 0.812103 1.063092 -0.718304 0.234215 1.186003 -0.031561 0.528968 -0.522851 -0.224593 0.359377 0.641282 0.865154 0.377813 -0.026165 -2.328731 0.048912 0.683104 1.228857 0.704947 0.370374 -1.190600 -0.797832 1.304474 -0.311833 0.007791 -0.520174 1.493610 -0.175863 -1.323696 -0.880960 -0.206508 -1.331202 0.364747 -1.157638 -0.201850 0.201370 1.450729 -0.066136 0.368822 1.626929 1.114113 1.034008 0.402560 1.390301 0.200829
also 0.030151 -0.589420 -0.911620 1.140529 0.190023 -0.319554 0.586213 -0.793333 0.554240 -0.058492 0.708675 -0.172271 0.189226 -0.318688 -0.170405 0.635173 0.775574 0.279852 -0.928886 -1.779209 0.434601 -0.400659 -0.216302 0.213357 1.135452 -0.916776 -0.359712 -0.523730 -0.409457 -0.457974 0.724651 0.969206 -1.282457 -2.079855 -0.545333 -0.043740 0.018937 0.018900 -1.222564 0.043240 0.004854 -0.279324 0.079138 0.739341 1.300136 -0.132328 0.612751 0.815330 -0.240372 -0.330200
one 0.048446 -1.052855 0.678717 -0.042578 0.166859 -0.105427 -0.548146 0.896461 0.343955 0.022148 0.973454 -0.207322 0.186062 -0.752696 -0.093208 -0.337285 -0.336608 0.526965 -0.036921 -1.312982 -1.482978 -0.952513 -0.475221 0.582070 0.828662 -1.115498 -0.695091 0.273437 0.707727 -0.538405 0.591306 0.996051 -0.011947 -1.752224 -1.069697 -0.444434 -0.584569 -0.043614 -1.049857 0.573172 -0.388285 -0.891539 -0.519268 0.648780 1.019301 -0.672608 0.446485 0.592207 1.655756 0.442447
programming 0.248437 -0.107925 -1.123576 0.563147 -0.184272 0.164547 0.439211 0.140578 0.978852 1.012011 1.899567 1.368175 1.082645 -0.415218 -0.382366 0.749021 0.627822 -0.681720 0.115009 -1.668210 0.184955 0.017485 0.205254 0.308234 -0.510962 -0.461047 -0.841288 -1.311039 0.511499 -0.262305 -0.004803 -0.091141 -0.815071 -0.949730 -0.257103 0.816905 -0.305877 0.155714 -0.337303 1.703548 -1.042150 0.112807 -0.646422 0.138429 1.651297 -0.629831 -0.491414 -0.812625 0.777125 0.928519
may -0.819603 -0.779185 -0.255841 0.946452 0.355720 0.198753 0.252201 0.175497 0.043809 -0.213945 1.147546 0.012236 0.104268 -0.123898 -1.061843 0.738710 -0.201099 0.629430 -0.907968 -0.819950 -1.334082 -0.573911 -0.050077 -0.186686 1.665926 -0.696882 -0.221528 -0.623313 0.074557 0.222160 -0.059451 0.365979 -1.406335 -1.211954 0.782119 0.358204 0.500277 -0.941939 -2.066747 -0.783373 0.287799 0.085310 -0.600140 1.068931 1.085345 -0.733276 0.769434 -0.720475 1.252121 -0.833545
software 0.266073 0.578275 -0.244766 2.100091 0.491451 0.589266 -1.189909 -0.930436 -0.029219 0.023023 1.458624 0.036947 1.751861 -0.343455 -0.155800 0.430500 0.117670 -0.093173 -0.581448 0.084249 0.477018 0.485178 -0.813206 0.369528 0.980660 0.477415 0.664072 -1.098472 1.448759 -0.519492 0.386027 1.066746 0.190503 -1.401246 -0.850546 0.067503 -0.654652 0.395732 -0.593902 0.426788 -0.019722 -0.321299 -0.476461 0.405622 1.040009 0.445420 1.097440 -0.901603 0.753227 -0.378896
system 0.431167 -0.689098 -0.591241 0.140086 0.000339 0.922667 0.377700 0.837844 -0.626626 -1.085538 2.067728 -0.824407 1.379727 0.130920 0.126842 0.315675 0.065734 0.267802 -0.357640 -0.814348 0.418257 1.095427 -0.590178 -0.396927 0.571537 -0.179162 -1.323803 0.042208 0.396733 -0.058804 -0.027144 0.823063 0.483547 -1.930564 0.006355 -0.364881 0.520182 -0.355176 -0.717998 -0.856094 -0.193606 -0.409060 -0.744070 0.575477 1.436048 0.502958 0.901338 -0.326484 1.269071 0.272322
systems 0.092643 0.228760 -1.463256 -0.247992 0.296281 0.506516 0.901950 0.974356 0.397904 -0.042377 1.499705 -0.705412 1.298011 0.045777 0.460077 0.611412 0.454051 -0.150358 -0.501653 -0.377536 -0.045524 1.396620 0.165365 -0.476211 0.542342 -0.824188 -0.436312 -0.882027 0.234428 0.374930 0.630946 1.157787 -0.446454 -1.619738 -0.755525 -0.238978 0.360417 0.848275 -0.441470 -1.121913 0.065723 -0.264588 0.036125 1.024030 1.832604 0.245478 1.056116 -0.364325 0.718389 -0.092762
displaystyle 0.113553 -0.661019 0.122085 0.858487 0.421814 -1.946521 -1.125618 0.113614 -1.138173 0.009518 -0.551826 -0.030590 0.077921 -2.516845 -0.648280 -0.633310 0.032253 -0.252759 -0.798806 -1.452882 1.393321 -1.087358 0.518483 0.331797 0.299353 -1.417779 -0.673571 0.016439 -0.060557 0.162825 -1.523209 1.035502 0.061133 -0.712433 -0.088666 0.633614 -0.112952 0.104813 -0.352260 -1.585452 0.285660 0.645076 1.278062 0.177045 0.959018 0.138851 -1.039450 0.245161 1.956158 0.091534
language 0.434344 -0.021930 -0.992662 -0.321889 -0.186183 0.345991 -0.438188 -1.495231 1.002361 0.633266 2.005840 0.612961 1.501045 -0.639020 -1.495655 0.561763 0.674098 -0.308479 -0.568082 -1.246510 -0.702617 0.244200 -0.072345 -0.195157 -0.454220 -1.631769 -0.846220 -0.393083 -0.488353 -0.374315 0.240742 0.199810 -0.221547 -0.130508 0.456863 0.384961 0.910426 -0.138703 -1.480205 0.517349 -0.824378 -0.218565 -0.038178 -0.492345 1.068407 -0.679742 0.708901 -0.593015 1.366377 1.965569
n 0.663867 -0.458583 1.333737 0.159417 -0.014646 -2.257334 -0.868563 0.524735 -1.721976 0.110936 0.235541 -0.235986 -1.011486 -0.864633 -0.818572 -1.075929 -0.143706 0.282044 -0.586500 -0.709358 0.082387 -0.092574 0.346129 0.339072 -0.044667 -1.510460 -0.746487 -1.553150 -0.184736 0.135677 -0.306655 0.331874 0.120030 -0.195501 0.115079 0.230835 0.409931 0.955859 -0.782548 -1.367664 1.479745 0.319242 0.763189 -0.177618 1.438572 0.157730 -0.723385 0.482620 1.654397 0.116290
set 0.139804 -0.099333 -1.232624 0.147645 0.679040 -0.565200 -0.349217 -0.399875 -0.236047 0.172102 0.443534 -0.975137 -1.030694 0.077395 -0.230318 0.249398 -0.007532 -0.215516 0.700719 -1.729926 -0.058453 0.577605 0.531916 0.294425 -0.376828 -1.154644 -0.468615 1.392804 0.534362 -1.066322 0.248794 1.200213 -0.496554 -1.382274 0.258328 0.714743 -0.409219 0.717401 -1.917025 -0.251556 -0.089807 1.202461 -0.539199 -0.315063 0.759905 0.297710 0.704014 1.012023 1.504448 0.347297
use -0.448074 -0.621048 0.338119 0.641946 0.184745 0.366152 -0.697848 0.031333 0.004872 0.834451 1.399444 -0.326259 0.367729 -0.602204 0.560599 0.314160 0.882610 -0.486282 -0.534676 -1.696779 -0.497118 0.602946 -0.359932 -0.759459 -0.229738 -0.853315 -0.119460 -0.011067 0.416735 0.349465 -0.271028 0.210676 -0.578638 -1.098147 -1.019254 0.091769 -0.306248 -0.267083 -0.499959 -0.030366 -1.606620 -0.667767 -0.625328 0.083762 1.589625 -0.547348 0.931032 -0.027036 0.580469 -0.739874
languages -0.264952 -0.209121 -1.472630 0.293522 0.407421 0.017862 0.755174 -0.267848 1.307342 1.474762 2.112684 0.907130 0.650279 -0.431512 -0.937531 1.287771 0.247068 -1.033600 -0.411062 -1.443439 0.111816 -0.026906 0.015454 0.036196 -0.972160 -0.935165 -0.960966 -1.084110 -0.019079 -0.171571 0.234716 -0.028511 -0.086347 0.173939 0.255413 1.129921 -0.332322 -0.358534 -0.907467 0.974266 -0.694871 0.048075 -0.028876 0.022620 1.310331 -1.168509 0.563744 -0.397704 1.173518 0.292448
this 0.401728 -0.749926 -0.195828 1.142601 0.161678 -0.581136 0.333163 -0.775233 0.019345 -0.616822 1.117168 0.090454 -0.317326 -0.650926 -0.046546 0.014927 0.636185 0.488900 -0.016065 -1.315119 -0.915408 -0.198242 -0.521765 1.230796 0.999810 -0.861262 -0.680384 -0.291835 -0.158915 -0.474742 0.047442 0.533930 -0.133587 -2.042990 -0.260916 0.181283 -0.548514 0.345440 -0.200261 -0.218457 -0.468626 -0.615054 -0.484388 0.431109 0.864033 0.375944 0.305465 0.546096 1.605335 -0.431590
example -0.070122 -1.102766 -0.156765 0.346564 0.217486 -0.117293 -0.595613 0.967362 -0.486954 0.356109 1.076053 -0.267948 -0.378202 -0.223008 -0.901705 -0.134460 1.351147 0.165734 -0.292445 -1.059842 -1.032117 -0.108732 -0.156257 -0.129355 0.240768 -0.853109 -0.602932 -0.224325 0.062737 -1.350712 0.703945 0.815663 -0.475384 -0.523619 -0.616932 -0.063323 -0.034512 -0.008756 -0.757342 0.190516 -0.027015 0.203342 0.280266 0.997789 1.428842 -0.624917 0.621615 0.553144 1.116286 -0.057730
many 0.401582 0.158434 -0.237951 0.610599 0.821854 -0.053269 -0.290691 -0.572272 0.219766 0.474423 1.329068 0.137416 0.187178 -0.080767 -0.356558 0.642013 -0.316730 0.502982 -0.540881 -0.376165 -0.202228 0.384925 -0.084411 -0.236292 0.135419 -0.622252 -0.965363 0.420867 0.605049 0.832080 0.972381 0.550156 -0.534897 -1.216555 -0.810633 0.295397 0.167945 0.097917 -0.873562 0.518560 0.279772 0.597020 -0.494783 1.080117 2.132103 -1.518620 1.164842 0.181694 0.711530 -0.713993
e 0.167462 0.766094 0.429470 -0.368413 0.837018 -0.661210 -0.491887 0.098731 -0.828697 -0.598816 0.552462 -0.287790 -0.288404 -0.593105 0.210359 0.458672 -0.220094 -1.062370 -1.697467 -1.318957 0.585577 -0.390815 0.675665 -0.471194 0.295317 -1.227877 -0.412446 -0.742669 0.718219 -0.323518 -0.149342 0.660466 -1.309848 -0.507009 -0.890827 -0.242777 0.355789 0.295612 -1.298285 -1.416745 -0.598047 0.232405 0.515798 0.179804 0.504806 -0.419397 -0.225976 0.105279 1.494118 1.102574
number 1.014515 -0.766644 -0.014823 -0.251741 -0.087785 0.063808 -1.065778 -0.332470 0.131937 0.940926 0.563922 -0.411731 -0.276842 -0.020052 -0.341380 -0.140463 -0.331568 0.432326 -0.407891 -0.430488 -0.404816 0.427149 -0.576503 0.710281 0.557422 -1.967762 0.398083 0.546570 0.215201 -0.207166 -0.311250 0.595505 -1.153114 -1.335026 -0.669534 0.304513 -0.902620 -0.248168 -0.854480 -0.256286 0.426785 0.892140 0.854080 0.032980 1.165225 0.428896 0.318847 0.426019 2.000969 -1.140455
time 0.123739 -1.265846 1.959724 -0.105501 0.396202 -0.370884 0.093702 -0.230874 -0.238731 -0.738584 1.118305 0.888389 -0.221713 1.133071 -0.494809 -0.246888 0.382827 0.322627 -0.787510 0.239202 -0.785414 0.447436 -0.325455 0.825654 0.067412 -1.139434 -0.447553 -1.247145 1.227996 0.489224 -0.538810 0.665736 0.058971 -1.471108 -0.815953 -0.230721 -0.386634 1.505946 -1.259397 -1.059907 -0.168332 -0.359372 0.425065 -0.595944 1.853304 -0.585177 0.810324 -0.223680 0.826671 0.062601
g 0.158908 0.684654 0.869367 0.010415 0.371448 -0.533608 -0.503521 -0.597953 -0.715835 0.607914 0.619559 -0.553970 -0.593303 -0.644694 -0.118878 0.001791 1.475873 -0.923613 -1.553891 -0.679410 0.632911 -0.687142 0.782715 -1.304664 0.750862 -1.799536 -1.094722 -0.370513 1.121336 -0.276891 -0.405469 0.332529 -0.344071 -0.665807 -0.971176 -0.018489 0.353315 0.052056 -0.841160 -1.376919 -0.804263 0.995546 0.166289 0.340711 0.120446 -0.152162 -0.746305 -0.133017 1.586347 0.906971
for -0.056831 -0.691511 -0.168288 0.948877 0.506023 -0.296060 -0.772626 0.532809 -0.407189 0.312733 1.179042 -0.058420 -0.160564 -0.168119 -0.554386 -0.272333 0.876620 0.627317 -0.844048 -1.117094 -0.931859 -0.118397 -0.215837 -0.140217 0.367991 -0.569522 -0.727514 -0.221801 0.023910 -1.049856 0.463976 0.902050 -0.792097 -0.392113 -0.586762 -0.116576 0.057123 0.207205 -0.978312 0.198011 0.327689 0.577501 0.448026 0.747098 1.385967 -0.474599 0.182485 0.345584 1.495921 -0.081948
c 0.097995 0.031934 -0.895171 0.845547 -0.552153 -1.529615 -0.490461 0.596670 0.325155 -0.522899 1.305577 0.027183 -0.350502 -1.281646 -2.375168 0.778950 0.784689 -0.558898 -0.086189 -0.770197 1.030729 -0.466889 -0.038454 -0.196849 -0.298372 -0.657695 -0.703940 -0.421389 -0.054150 -1.152526 -0.034829 0.792196 -0.039760 0.008165 -0.568314 0.142062 0.372768 0.530228 -1.292475 -0.168556 0.260247 0.305321 0.781655 0.996165 1.102957 -1.109665 -0.788514 -0.265301 0.701044 1.351145
first 0.280098 -0.813613 -0.128349 0.469996 -1.236118 -0.505693 -0.448367 -0.112701 -0.609496 0.316174 0.834576 -0.373974 0.827295 -0.030262 -0.825244 1.244382 -0.023841 -0.224600 -0.354861 -0.680425 -0.276570 0.187224 0.554495 0.751227 0.837528 -1.676379 1.114921 0.131205 -0.226927 -0.419323 0.292279 0.304190 0.525415 -1.148263 -0.602821 -0.096682 0.729933 0.882329 -1.105415 0.726863 -1.594039 -0.115779 -0.424135 0.427843 0.816699 -0.461395 0.740533 0.325733 0.199880 0.266274
science 0.568005 0.646589 0.334780 0.177057 -0.332219 -0.156328 0.186055 -1.129443 -0.088902 0.529624 0.379216 0.492493 0.412681 -1.102198 0.167898 0.977162 0.399613 -0.317895 0.715824 -0.135332 0.097129 -0.235696 1.042036 0.019471 0.900260 -0.799522 0.152240 -1.478771 -0.567040 0.405862 0.934269 0.708745 -1.393820 -0.963947 -1.448917 -0.448723 -0.463727 1.315288 -0.879958 0.784741 0.731958 0.153972 -1.218595 1.149999 0.170332 -0.064243 0.951457 -0.388207 0.516650 0.812519
algorithms -1.016323 1.262406 1.553749 -0.061948 -0.225945 -1.178592 -0.087970 0.679485 1.170773 -0.380718 0.754727 0.432884 1.031144 0.314402 0.887433 0.157952 0.115999 0.687834 0.256832 -1.189468 -0.361585 0.270159 0.293140 -0.333011 0.545642 -1.631883 -0.965814 -1.061903 0.413920 0.180623 -0.032027 0.338945 -0.857168 -0.084736 -0.617071 -0.499154 0.290431 -0.075592 -0.662776 0.714758 -0.759237 0.505020 0.035068 0.429737 2.343682 -0.750573 0.399386 -0.402723 -0.326974 -0.346382
program -0.697672 -0.653298 0.570362 -0.086270 0.471658 1.119584 -0.403804 0.268939 0.591055 -1.183872 2.045326 -0.144072 0.462310 -0.183745 -1.259194 1.344933 0.102220 0.122314 0.061354 -0.551286 -0.816174 0.574567 0.147855 -0.423920 0.619803 -0.998722 0.007601 -0.667029 0.309547 -0.273635 -1.335455 0.621048 -0.408289 -1.455684 0.217072 -0.336356 -0.408452 -0.044188 -0.211764 0.893455 -0.124180 -0.332229 -0.906411 0.504089 0.141475 0.694862 0.295575 -0.029103 1.176141 0.609391
function -1.344655 -1.745349 1.047578 0.217817 1.020173 0.391134 0.233686 -0.775567 -0.322478 -0.386316 0.568765 0.759877 0.186489 -0.952314 -0.327407 0.752427 0.401393 -0.834196 0.752178 -0.913446 0.655363 -0.158244 -0.634343 -0.012998 0.368829 -2.106130 -0.576747 0.632060 -0.775793 -1.074156 0.475467 0.162237 -0.005921 -0.687441 -0.230021 0.045580 -1.166966 0.428826 -0.635494 -1.075468 0.862710 0.027376 0.392931 0.057761 0.830452 -0.441878 -0.933033 0.072866 1.433589 -0.288348
model -0.461749 -0.176917 0.152081 -0.311869 0.956462 0.452261 -0.315268 0.133797 -0.182498 0.561843 0.645395 -0.090673 0.060379 0.013862 0.014501 0.154955 0.576205 0.413066 -0.150848 -1.544992 0.219041 0.470442 -0.160439 1.486441 0.273455 0.064355 -1.368618 -0.179169 -0.220019 0.346167 1.672407 -0.105794 0.064850 -1.103677 -0.396923 -0.835125 0.118727 0.446209 -0.389460 -0.501632 -0.690246 -0.229412 -1.211178 -0.301717 1.516539 0.975452 0.221247 -0.320100 1.508443 0.424305
information 1.276439 0.530440 -0.083053 -0.103943 0.584976 0.366511 0.713868 -0.036582 1.074477 -1.069387 0.476667 -1.439741 -0.380306 -0.438023 0.102140 0.664151 1.250512 0.097925 -0.458147 -0.786966 -0.674453 -0.192652 -0.053064 -0.082905 1.124678 -0.373926 -0.474821 -1.027855 0.001349 -0.171823 0.330536 0.516802 -0.598465 -1.303087 -0.843027 -1.088814 -0.764129 0.641286 -0.230088 -0.763956 0.287315 -0.296264 0.071082 0.370403 0.160405 -0.576853 1.790875 -0.996386 0.782515 0.323562
methods -1.344268 0.906951 -0.056578 1.162558 0.037471 0.335594 0.469572 -0.066291 -0.321465 -0.141866 0.576429 -0.263293 -0.634453 0.036490 0.549518 0.600994 -0.311050 0.045657 -0.295837 -1.070784 -0.562174 0.487035 -0.575434 0.113016 -0.223420 -1.154112 -0.425652 -1.187591 -0.876802 -0.367735 0.121307 -0.623709 -0.732080 0.048443 -2.340142 -0.443062 -0.040059 0.254068 -0.855299 0.034393 -1.312561 0.331359 -0.096858 0.624801 1.617512 -0.411687 0.084438 -0.783261 0.988818 -0.768312
analysis -0.821047 0.085530 0.293111 -0.334409 0.568033 -0.795563 -0.033533 -0.883225 0.034560 -0.512954 0.050449 -0.451287 0.610089 -0.570826 -0.797003 1.493664 0.448183 -0.282375 -0.490045 -1.329581 -0.798899 1.298245 -0.351372 0.592996 2.427077 0.044483 -0.837967 0.138468 0.895364 -1.140480 0.478385 -0.629356 -0.760174 -0.185182 -1.792518 0.007235 -0.563131 -0.469395 -0.103465 0.480407 0.665373 -0.163827 -0.121054 0.321966 1.332953 0.373827 0.561308 0.092448 0.301190 0.713406
using 0.031119 -0.276228 0.265935 0.788418 0.444124 -0.552795 -0.425825 0.032216 0.318523 -0.137813 1.002384 -0.761162 -0.085595 0.076250 0.500288 1.154617 1.487126 -0.038811 -0.804361 -0.980484 -0.103769 0.799782 0.102525 -0.136356 -0.242372 -1.098677 -0.356657 -0.195815 -0.343175 -0.472115 0.591465 -0.119449 0.071161 0.051126 -0.099440 -0.415883 -0.304592 0.272725 -1.357862 0.003204 -0.541004 0.325481 -0.444988 0.565821 1.134451 0.084261 0.142840 0.362373 1.079069 0.225108
two 0.575573 -0.685359 0.227372 0.616227 0.642761 -0.088274 -0.712729 0.599919 -0.214247 -0.615568 -0.263697 -0.416881 -0.044618 -0.606093 0.204918 -0.340694 -0.151503 0.446773 -0.284377 -0.731137 -0.109638 -0.798056 0.733568 0.203855 0.022242 -1.461035 0.028049 0.304150 1.363074 -0.418482 0.557998 -0.626386 -0.470223 -1.355718 -0.416153 0.627171 -0.052652 -0.745185 -1.478874 0.695171 -0.114787 -0.397153 0.149802 0.389185 1.457508 -0.759158 0.268511 0.735038 1.102856 0.417469
problem -0.598856 -0.192974 0.174276 0.584942 1.300228 -0.915975 -0.175390 -0.454334 0.038301 -0.395674 0.531534 0.828299 -0.125648 0.377617 -0.541767 -0.835986 0.454983 1.131436 1.027203 -0.452069 -0.288082 0.708063 0.156368 0.733821 -0.483288 -1.103589 -0.742958 0.691673 0.093045 -0.588049 -1.345121 0.926386 -1.520269 -0.534677 -0.435627 -1.469795 0.032519 0.659460 -0.579310 0.317933 -0.335999 0.355232 -1.067362 0.766481 1.368427 -0.274198 0.183302 -0.106952 1.034492 0.880344
logic 0.069216 -0.028359 -0.631871 0.253210 -0.001207 0.312209 0.345472 -0.248857 1.020229 0.576452 0.837547 0.709124 0.113905 0.828689 0.999056 1.488183 0.867147 0.421072 0.451597 -0.853234 -0.352492 0.027099 1.867888 -1.454712 -0.181904 0.211041 -0.820386 -0.963716 0.160667 -0.905584 -0.569347 0.325872 -0.087419 -1.577348 -0.766716 1.046895 0.673522 0.606823 -0.384498 0.442426 -0.965589 0.750481 -0.177318 0.456861 1.518481 1.761475 -0.213122 0.624128 0.888209 0.921500
type 0.629563 -0.336560 -0.417070 -0.926131 0.905686 0.353747 1.061361 -0.647537 -0.289635 0.271996 -0.064914 0.417961 0.583341 -0.804322 0.191152 0.886180 -1.072249 -0.504275 -1.413954 -1.903604 -0.081714 0.133123 0.446480 0.177119 -0.390441 -0.380985 -1.412518 0.259131 -0.362794 -0.634005 -1.371781 1.327768 0.579007 -0.617336 0.387230 -0.252936 -0.854220 0.153488 -1.184466 0.093366 0.932986 -0.604605 -0.411505 0.902808 1.159630 -0.368243 -0.744377 -0.473059 1.422094 0.027417
algorithm -0.776380 -1.334687 1.504189 -0.129805 0.401698 -1.024617 -0.480841 -0.039266 0.373482 -0.331581 1.144318 0.307149 0.983943 0.594938 -0.012046 -0.660291 0.927738 0.013572 0.637985 -0.530534 -0.388951 1.233533 1.289865 0.681403 0.640677 -2.447265 0.010372 -0.662026 0.152861 -0.829088 0.194681 -0.253865 -0.397933 -0.154532 0.400780 -1.299587 -0.172731 -0.040879 -0.337686 -0.020568 -0.203800 -0.379799 0.971852 0.336458 1.658153 0.284143 -0.139206 -0.023541 0.410694 0.764608
it 0.335229 -0.237477 -0.072846 0.610735 0.241715 -0.491658 -0.104197 -0.209778 0.410338 -0.071883 0.639429 0.347000 0.344583 -0.457171 0.084838 0.358386 1.010013 -0.082560 -0.420275 -0.556363 0.251506 -1.086173 -0.158834 0.153369 0.670912 -0.130521 -0.371745 0.670963 -0.614409 -0.105353 0.225516 0.588537 -0.119818 -2.020281 -0.642650 -0.924623 0.009498 -0.137897 -0.846639 0.280021 -0.551253 -0.627153 -0.311321 0.243123 0.991992 -0.536373 0.599969 -0.136152 1.007061 0.489643
code -1.330990 -1.035822 0.390822 0.161501 0.691718 0.980327 -1.288851 -1.230387 1.698911 -0.868734 1.016801 0.371008 0.100963 -0.889234 -0.834536 0.361177 1.150062 -0.172347 -1.141530 -1.392627 -0.011548 0.779994 -1.101765 -0.668242 0.340047 0.468263 -0.670382 -0.509887 0.719759 -0.418730 -0.099980 0.408869 0.420681 -0.489581 -0.846361 -0.011902 0.258477 0.005848 -0.964612 1.432013 0.204056 -0.863028 1.007001 -0.743037 0.305548 0.188663 0.436945 -0.188211 1.331281 -0.012702
b 0.307368 -0.131844 0.268334 -0.237238 0.055347 -0.670707 -1.223919 0.792901 -0.784946 -1.351118 1.580707 -0.922947 -1.117250 -1.563036 -1.260403 0.405551 -0.443793 -0.252690 0.472706 -1.102211 -0.035105 -1.939366 0.425867 -0.291049 -0.882954 -1.046083 0.098663 0.446443 0.002888 -1.029294 -0.418957 0.444008 -0.068978 -0.945627 -0.428600 -0.186393 0.726934 0.231332 -1.342502 -0.621921 -0.075012 0.442397 0.839484 1.041580 0.850012 0.496898 -1.193205 -0.560354 0.723932 0.937083
memory 0.968525 -1.645893 -0.111529 -0.539090 -0.046059 -0.927471 0.604811 1.120891 0.460331 -0.297995 0.229302 -1.284789 0.103220 1.078250 -0.283236 0.483529 0.824939 -0.210525 -1.204680 0.326901 -0.555740 0.887034 -0.116435 -0.854391 -0.110122 -0.193312 -1.348522 -1.227825 0.044070 0.363772 -1.233748 -0.314093 -0.630989 -2.205813 -0.305575 -0.489909 -0.583979 -0.558672 -1.473082 0.821863 -0.384551 -0.965082 -0.669214 -0.187015 -0.366141 -0.045863 0.204941 -0.019995 0.693946 -0.528526
engineering 0.454597 0.913901 -0.331972 1.981273 1.465215 0.579358 -1.060762 -0.847983 -0.671947 0.557547 -0.243287 0.207889 1.565200 -0.594668 -0.036041 0.610980 -0.086307 -0.205693 -0.423919 0.602787 -0.102912 0.358354 0.771987 0.236949 1.145421 -0.413800 0.949735 -1.347752 0.367204 0.180979 0.688914 0.661993 -0.335075 -1.386283 -1.367310 -0.294828 -0.717277 0.835576 -0.853283 1.077044 0.533740 -0.157619 -0.285464 0.275681 0.451446 1.160442 1.735076 -0.632687 0.976913 0.656951
design 0.316448 0.870345 -0.397244 0.958006 -0.026968 -0.431794 0.339564 0.550724 0.792660 -0.519973 0.933020 0.430156 1.230487 -0.726279 0.346517 -0.433076 -0.393979 -1.520982 -0.249322 -0.140888 -0.087791 1.211782 0.211106 0.685348 1.241832 -0.510969 0.157705 0.599351 0.677223 -0.946083 1.176506 -0.117029 -0.879671 -1.115466 -0.355907 -0.397054 -0.200551 -0.031143 -1.365424 0.166812 -1.170178 -0.242334 -0.065650 0.190735 0.445119 0.421629 0.514573 -1.747983 1.121258 0.484285
f 0.083464 -0.081624 0.530972 -0.000534 -0.203680 -0.904101 -0.820010 -0.561590 -1.889890 -0.330736 0.314609 -0.523224 -0.473637 -0.875981 -0.886470 0.031429 1.139067 -0.355624 -0.418944 -0.649792 0.306359 -1.857825 0.388492 -0.350820 -0.396569 -1.414538 -1.302451 -0.862464 0.191868 -0.469400 -0.212175 0.328493 0.800106 -0.509685 -1.202193 -0.119305 0.299232 0.382645 -0.192756 -1.733150 0.046180 0.606656 -0.181132 0.913608 0.966851 -0.020543 -1.690885 0.143860 1.247506 -0.203870
called 0.146622 -0.766525 -0.231773 0.124510 0.910213 -0.338105 -0.002699 -0.895411 0.147385 -0.740272 -0.050057 -0.463680 -0.116593 -0.769696 0.082626 0.697460 0.101226 0.200485 -0.150794 -2.030412 0.230090 -0.582931 -0.242521 0.452292 -0.069662 -1.437640 0.139849 -0.412627 -0.207261 -0.531921 -0.250622 0.894689 -0.334665 -1.033880 0.280451 -0.235588 0.117838 -0.111286 -1.058368 0.417998 -1.267765 0.110555 0.279494 0.314738 0.685504 0.311495 -0.048952 -0.120256 0.662887 -0.236006
different 0.703264 -0.127726 0.253637 -0.331095 0.858723 -0.114164 -0.129643 -0.325628 -0.073448 -0.311968 1.380928 -0.020469 -0.512931 -0.991729 0.471998 -0.195892 -0.119661 0.222403 -0.949435 -0.528597 -0.678024 0.176546 0.203191 0.298120 -0.269796 -0.141413 -1.105125 -0.011027 0.500077 0.882802 0.592351 -0.283740 -0.551070 -0.433091 -0.211284 0.950316 -0.576806 -0.943142 -1.298740 0.298654 0.230074 0.393135 -0.550637 0.577492 1.159978 -1.028566 0.987545 -0.383499 2.017432 0.028430
computational 0.288397 1.504995 0.922630 -0.753697 0.044133 -0.742293 1.151454 0.339167 -0.439900 -0.144157 1.017753 0.831502 0.118288 -0.583649 0.590406 0.842697 0.781062 0.199991 -0.146390 0.423722 -0.471420 0.066068 -1.060790 0.404336 0.393246 -0.465226 0.029901 -0.495458 -1.436633 -0.687448 0.125831 0.705168 -0.982364 -0.308337 -1.824831 -0.554749 -0.555478 1.003874 -0.810442 0.362425 0.438824 0.335148 -0.671426 1.124239 1.535102 0.750991 1.178652 -0.238775 0.485429 1.038712
problems -0.730082 0.647662 0.651419 0.834440 1.297615 -0.967205 0.163318 -0.261152 0.215651 0.269324 0.752039 0.207730 0.506866 0.352321 0.280875 -0.691321 -0.316647 1.184238 0.356376 -0.441612 -0.109379 0.659759 -0.298553 -0.484657 -0.500183 -1.248874 -1.052159 0.412899 -0.335817 -0.399408 -0.527429 1.068453 -1.059927 -0.177477 -1.304499 -1.582583 -0.343081 0.891295 -0.923989 1.042500 0.220714 0.301151 -0.105683 1.084964 1.743978 -0.121598 0.675832 -0.313922 -0.063792 0.147994
often -0.210320 0.144202 -0.112119 -0.005676 1.136366 -0.626643 0.315250 -0.688220 0.209127 0.473064 0.442228 -0.122405 0.644045 -0.355693 0.015330 0.241178 0.727400 0.319307 -0.534535 -1.047241 -0.415790 0.134693 -0.172210 0.054569 0.463611 -0.477758 0.004118 -0.686575 -0.182204 -0.063114 0.494864 0.242895 -1.060500 -1.657663 -0.098993 -0.016702 0.075071 -0.201909 -0.572531 0.343681 -0.337171 -0.444093 -0.827629 0.440109 1.025580 -0.631444 -0.059020 -0.153063 1.225370 -0.426376
computing 0.582525 -0.652270 -1.089296 -0.247199 -0.545773 -0.738836 -0.308292 0.319473 -0.219126 -0.361945 1.463776 -0.353017 1.291802 -0.520066 0.905314 -0.864332 0.551118 0.733818 0.134484 -0.470985 -0.357504 0.281200 -0.506225 0.154175 1.092601 -1.600425 -0.489674 -0.912320 0.243660 0.444574 1.119225 -0.463335 -0.958352 -1.292989 -1.040114 -0.007498 0.305312 0.919641 -0.635297 0.585725 0.075865 1.723487 -0.340817 0.592449 0.326447 0.221814 0.906133 -0.227568 -0.423841 -0.158320
machine 0.325561 -0.431887 0.370143 -0.284204 0.208020 -0.499594 -0.837461 -0.548029 0.582764 -1.101383 1.311651 0.672616 -0.653297 -0.418475 -0.294148 0.917822 0.950353 -1.252805 -0.698307 -1.163071 -0.906441 0.176664 -0.195051 0.725612 -0.438645 -0.814062 -1.110761 0.010124 -0.760075 0.726458 0.291277 0.010844 -0.660667 -0.625357 0.616800 -0.697787 0.744172 0.029788 -1.171335 0.595738 -0.099345 -0.166103 -0.358243 -0.597339 1.016644 0.916532 1.455459 0.302976 0.468021 0.196560
method -1.860866 -0.333748 -0.329352 1.320815 -0.203023 -0.267624 0.104652 -0.050248 -1.328080 -0.085615 0.279311 -0.124769 -0.889315 0.137858 0.251695 -0.515844 0.329337 0.579654 0.125290 -1.355912 -0.548738 0.567076 -0.188375 0.688585 1.324634 -1.956228 -0.409708 -0.163828 -0.696490 -0.631651 -0.352984 -0.674058 0.606607 -0.068204 -1.015439 -0.943051 -0.485495 0.600536 -1.268133 0.332134 -1.266813 -0.523418 0.481433 0.045818 0.747158 0.067418 -0.486458 -0.603500 0.795306 -0.382173
new 0.322286 0.017509 0.257489 1.241201 -0.898138 -0.321478 -0.125609 0.363304 0.771013 0.120663 0.705075 0.514423 -0.337225 -1.805894 1.366297 0.572072 -0.613092 -0.164972 0.467562 -0.639182 -0.030902 0.480121 -0.135821 -0.055174 0.751291 -0.068526 0.789881 -0.143110 -0.169653 0.107113 -0.009565 -0.157525 0.898530 -0.828229 -0.249379 -0.195215 -0.626013 0.512316 -1.941456 -0.417837 0.381171 0.609233 0.163276 -0.089575 1.177864 -1.116389 1.170888 -0.027776 1.351275 0.797408
known -0.278984 -0.948089 0.563756 1.226073 0.984620 -0.722696 0.972260 -0.639616 0.641537 -0.316729 -0.048266 -0.361512 0.225925 0.219817 -0.672003 0.259699 -0.299096 0.537083 -0.436380 -1.541633 0.877839 0.507079 -0.267766 0.749181 -0.129350 -0.950665 -0.579368 -0.354792 -0.186304 0.272109 0.234861 0.514094 -0.748572 -1.240027 -1.149202 -0.943063 0.323696 -0.278868 -0.694896 0.774296 -0.804195 -0.030689 -0.003953 0.458338 0.858236 0.118163 0.769447 0.574158 0.373367 0.494001
network 0.138309 -0.944686 -0.433773 -0.410564 1.079182 0.142027 0.393191 0.195640 0.075297 -0.321455 0.394796 -0.674805 0.459929 1.047921 1.552335 0.341777 1.971111 0.459847 -1.069765 -0.361200 -0.447914 -0.093648 -1.743644 0.583516 0.234451 -0.168983 0.990883 0.488462 1.385046 0.704643 0.340783 0.331135 -0.641414 -0.737047 0.403620 -0.841215 -0.317096 -0.251093 -0.677314 -0.437538 -0.388305 1.180911 -1.878720 1.251415 -0.000920 -0.089219 0.627967 -0.524906 0.467854 -0.362485
mathematical -0.530745 0.705655 0.519679 -0.202899 -0.224507 0.470588 -0.261052 -0.384295 -0.487908 0.260271 0.689740 0.030815 0.307223 -0.975706 0.890365 1.023941 0.458685 0.397101 0.615081 -0.525956 -0.789216 0.071685 1.006047 -0.523585 0.495950 -0.898461 -0.777784 -0.121315 -0.287020 -0.784723 0.942459 -0.403274 -0.028053 -0.525927 -0.483712 0.078424 0.263582 0.359252 -1.094461 0.669897 0.281687 0.941870 -0.971321 0.936215 1.798992 1.246633 0.472976 0.158502 0.811404 0.554812
research 0.206186 0.167841 -0.741256 0.200637 -0.505338 -0.085076 0.451827 -0.538739 -0.089618 0.089943 1.162894 0.649377 0.170155 -1.000923 0.695030 0.351897 -0.210149 -0.294825 1.058352 -0.434996 0.648752 0.875839 -0.392938 0.518360 0.055314 -0.396674 -0.657983 -0.171213 -0.235350 0.238771 -0.667350 -0.436501 -1.142852 -1.035572 -2.323584 0.768298 0.034545 0.216969 -0.710531 0.260278 0.852081 -0.272368 -0.713808 -0.012482 0.625426 -0.297692 2.523109 0.268852 0.096615 0.450652
include 0.059192 0.344347 -0.519757 0.079793 1.554205 -0.047030 0.463182 0.161055 0.029843 -0.268392 0.603588 -0.283455 -0.092203 -0.317569 -0.277964 0.922376 0.250031 -0.316922 -0.178988 -0.095710 -0.133901 0.797352 -0.871844 -0.464867 0.432483 -1.250490 -0.448452 -0.228859 0.910717 0.437585 0.600636 -0.137192 -0.756448 -0.629438 -0.597938 0.408175 -0.776709 -0.461943 -0.754616 0.544584 -0.809090 -0.282207 0.561537 0.738003 1.619870 0.728486 0.602464 -0.304473 0.012573 0.465441
s 0.396241 0.023344 -0.893161 0.102129 -0.905745 -0.634805 -1.298407 0.824671 0.391967 -0.646688 0.743162 -0.671650 -1.116474 -0.185359 0.038451 0.694758 0.260565 -1.132116 0.308232 -0.260268 1.138692 0.443691 0.674681 -0.214997 0.294633 -1.535511 0.491347 -1.152815 0.795141 0.294913 0.193751 0.114513 0.006250 -1.206729 -1.452332 -0.515390 0.805425 -0.889034 0.589168 -0.210305 0.639690 0.949524 -0.584309 0.162923 0.656173 0.477272 0.303381 0.568566 1.265763 0.290613
functions -0.877003 -0.132179 0.779399 0.236880 0.740567 0.279972 0.532988 -0.472328 -0.387586 0.585253 1.014754 0.099810 -0.028587 -1.170609 -0.172326 0.708693 0.888436 -0.862454 0.587481 -1.248014 0.685507 0.445569 -0.349291 -0.580300 -0.162395 -1.367567 -1.229582 -0.204728 -0.014607 -1.114241 0.729094 -0.583352 -0.009215 -1.085796 0.244512 0.225978 -0.645788 -0.388365 -0.434338 -0.181358 -0.069288 1.289561 0.076411 -0.003845 1.186235 -0.889633 -0.342626 0.761561 0.441967 -0.947299
development 0.350020 0.855103 -0.609643 0.396815 -0.263541 -0.445561 -0.064815 -0.345485 0.126476 -0.248683 1.484609 0.642751 0.526048 -0.417104 -0.135267 0.545038 -0.242322 -0.341028 -0.120402 0.197804 0.172637 0.404000 -0.129553 0.479122 1.074460 0.488291 -0.065666 -0.679079 0.303680 -0.243520 -0.055510 0.235146 0.477328 -0.990767 -1.821256 -0.072780 -0.365097 -0.964745 -0.785722 -0.202649 -1.134487 -0.734683 -0.503938 0.617874 1.133619 0.262124 1.497547 0.070293 0.740445 0.367016
however -0.228595 -0.093773 -0.445438 0.303007 0.147637 -0.575967 -0.006793 -0.174616 0.020674 0.339126 0.872568 0.778796 0.286642 0.439866 -0.173676 0.301478 0.492388 0.276295 -0.391356 -0.263730 -0.295659 -0.282051 0.259409 -0.026932 0.557095 -1.146015 -0.217356 -0.300663 -0.147959 0.382395 -0.164954 0.234722 -0.235448 -1.288862 -0.638150 -0.063871 -0.167787 0.432986 -0.458035 -0.072634 -0.222943 -0.766174 -0.103277 0.020632 1.327953 -1.002971 0.402711 0.690162 0.961124 -0.142499
form -0.341780 -0.358564 -0.327025 -0.318840 0.302113 0.315080 0.274304 -0.424778 -0.689648 -1.119418 0.158317 0.106906 0.535704 -0.667103 0.127813 0.569122 0.464146 0.721787 -0.503963 -1.212633 -0.378533 -0.403156 0.476833 -0.242156 -0.270051 -0.596614 0.279518 -0.842624 0.714596 -0.721931 -0.400302 -0.156471 -0.829442 -0.938337 0.504650 0.167198 1.280119 0.103043 -1.018805 0.796255 -0.015530 -0.479728 0.137263 0.180675 1.342506 0.381251 0.120643 -0.048784 1.170554 0.018363
computers 0.318494 -0.324737 0.257937 0.048892 0.541008 -1.119810 0.506767 0.542919 0.599825 -0.211032 1.833520 -0.241253 0.789195 -0.655205 0.839022 0.066108 0.361394 0.111738 -0.254164 0.139385 -1.125424 0.191420 -0.283661 -0.010245 -0.730140 -1.383090 0.157391 -0.826553 -0.410811 0.575670 0.132413 0.377539 -0.105838 -1.280355 -0.467882 -0.935920 0.214586 0.695726 -0.143021 -0.067608 -0.845509 0.452179 -0.469612 0.688848 0.148736 -0.208566 2.126634 0.925815 0.075714 -0.249101
programs -0.457946 0.197840 -0.108654 0.200338 0.597791 0.543811 -0.929730 0.124409 1.048326 -0.002174 1.245164 0.233810 1.140046 -0.136752 -0.439271 1.371967 0.785930 -0.395477 -0.567643 -0.585419 -1.199694 0.576341 0.049070 -1.061212 -0.261720 0.012823 0.000645 -0.773416 0.278969 0.551929 -0.680870 0.159686 -0.217174 -1.266848 -0.361634 0.244142 -0.610884 0.804628 -0.065442 1.157049 -0.205178 0.350175 -0.455730 -0.009656 0.730306 -0.521303 0.526983 0.530524 0.945108 -0.118286
testing 0.315789 1.096869 0.340667 0.683003 1.131902 -0.160347 0.829804 -1.155594 -0.774695 -0.200054 1.098463 0.298803 0.867881 -0.019693 0.309601 0.648120 -0.065746 1.002261 -0.575825 -0.748585 0.799769 0.013817 -1.724454 0.680846 0.340045 1.710577 0.676167 -0.058668 0.586668 -1.265672 -0.593824 -0.244173 -0.157966 -1.158681 -0.497701 0.058168 -0.564610 -1.601814 -0.253670 0.237975 -0.592233 -0.375517 0.302781 -0.028080 1.058992 0.278038 -0.575772 -0.168914 0.690933 0.593787
structure 0.199448 0.181061 -0.318254 -0.387184 1.020892 0.132362 -0.581890 0.062392 0.160524 -0.558702 -0.615765 0.119112 0.294074 0.332574 0.119096 1.610263 -0.473899 -0.584414 -0.142723 -1.303537 -0.231725 -0.433617 -1.464679 0.648824 0.724011 -1.320558 -0.508751 0.724934 -0.297589 -0.019927 1.035318 1.081815 -0.385905 -0.302625 0.018957 0.534476 0.406356 0.567653 0.614407 -0.018714 0.275904 -0.413471 -1.028676 0.264021 1.283519 -0.068902 0.078844 0.349434 1.519507 0.651920
database 1.268124 -0.500951 -0.530625 -0.451640 1.407341 0.132998 0.134627 0.607596 0.098320 1.032831 0.327178 -0.853157 0.137417 -0.592970 0.058311 -0.465915 0.046549 -0.555040 0.014026 -1.015286 0.317440 1.190626 -0.899855 -0.598819 0.425759 0.276031 -0.035452 -1.211203 0.461275 0.282778 1.261079 -0.085252 -0.118963 -1.465497 0.863425 -0.153030 0.590839 0.180634 -0.313597 -0.516627 -0.049102 -0.778846 -1.005677 -0.128108 -0.048361 0.325576 0.019817 -1.180114 1.468815 0.716997
types 0.897124 0.172841 -0.148838 -0.556619 0.741587 0.103617 -0.236297 -0.228409 0.111773 -0.247049 1.021654 -0.037641 -0.342873 -0.696400 0.588194 0.951129 -0.284917 -0.808142 -1.321442 -1.016153 0.073090 0.113695 0.146812 0.047894 -0.727485 -0.071102 -1.664150 0.025083 0.669256 -0.259708 0.597453 0.660848 -0.501417 -0.097390 0.487923 0.215275 -0.861783 -0.502533 -1.271886 0.672542 0.446261 -0.225248 0.432499 0.670632 1.454518 -0.562294 0.049608 -0.389994 1.041850 -0.883751
isbn 0.673705 1.041504 -0.657443 -0.009087 -0.358702 -0.464780 -0.891303 1.387651 0.184250 0.525583 -0.720940 1.095165 0.373659 -1.706366 1.183285 1.006015 0.274039 -0.660422 0.855685 -0.936511 0.030571 0.013757 0.197507 -0.224234 0.431496 -0.540508 0.409305 -0.897410 1.225810 -0.175604 -0.616893 0.317749 0.354217 -0.219007 -0.706954 -1.237496 0.762403 1.152846 -0.638803 -0.291636 0.434107 2.901595 0.584051 0.167454 0.618999 0.385951 0.417490 -0.949440 -0.439035 1.188167
i -0.313456 -0.006799 0.283790 -0.214454 0.682911 -0.698953 -0.145324 0.239451 -1.003625 -0.194361 0.384038 0.527718 -0.413594 -0.603945 -0.282223 0.466366 -1.258877 -1.623161 -1.290325 -1.439721 0.145662 0.169946 0.898668 0.532170 -0.342585 -0.942469 0.264388 -0.547999 -0.068409 0.423108 -0.230269 0.527907 -0.706275 -1.510654 -0.843825 -0.633634 0.660780 -0.233705 -1.176989 -0.778374 -0.175821 -0.325600 0.499536 -0.185058 0.483632 0.296418 -0.644545 0.050068 0.463115 0.629227
models -0.149436 0.460262 -0.221800 -0.733866 0.360973 0.248790 0.357188 0.023923 -0.548476 -0.102929 0.684996 0.037623 -0.170442 -0.190387 0.628253 1.129306 0.313783 0.798870 -0.704051 -0.219455 -0.739108 0.122717 -0.244483 1.016615 0.137242 -0.082863 -1.650962 0.069439 -0.282616 0.934101 1.167211 -0.922886 -0.376130 -0.504082 -0.585634 -0.625901 -0.126862 0.344346 -1.290842 -0.041566 -0.065139 0.175499 -0.878832 0.539500 1.839544 0.539345 -0.161967 -0.822844 0.046701 0.401664
class -0.733378 -0.290864 0.340140 1.294982 -0.110763 0.797422 0.936130 0.317309 -0.199237 0.550087 0.631614 -0.110392 -1.054314 -0.276048 -0.431286 -0.758185 -0.805218 0.127086 -0.307490 -1.811762 -0.036912 -0.039183 -0.800566 0.110062 -1.250743 -0.706414 -0.674825 -0.650568 -0.041747 -1.404694 0.541315 1.086334 0.302392 0.044447 -0.152240 -1.579313 0.354151 -0.118195 -1.744025 0.950307 -0.030181 -0.067199 0.446412 0.278843 0.106696 -0.456049 0.023086 0.157866 1.191386 0.211574
process 0.152337 0.350924 0.295188 0.228044 1.279301 0.195346 -0.764469 -0.625870 0.430418 -0.704443 0.492772 0.410588 0.760516 0.027699 -0.023467 1.094727 0.418643 -0.040071 0.035045 0.193547 -0.619572 0.245569 -0.570150 1.224819 0.716966 -0.089584 -0.047696 -0.276283 -0.240998 -0.276497 0.666106 -0.114277 -0.448379 -1.205567 -0.174687 -0.538215 0.095436 -0.387494 -0.339930 -0.220537 -0.517027 -0.854028 -0.150283 -0.272098 0.696305 0.686983 0.478295 -0.639706 1.323285 0.459370
quantum -0.014214 -0.325160 0.341594 0.020854 0.925508 -0.986040 0.245095 1.583566 1.084261 -0.566629 0.517104 -0.154919 0.363826 0.224811 0.205912 -0.334164 0.025730 0.666874 -0.536140 -0.485149 -0.253664 -0.473549 0.776119 0.658135 0.049023 -0.622945 -0.638212 -0.121770 -1.157700 0.871031 0.108765 0.442044 -0.056313 -0.453425 -0.502722 0.040670 -0.605144 1.268935 0.001448 0.003642 -1.174736 1.759764 -0.085609 0.063254 0.448399 1.591329 1.152763 -0.089282 0.357815 -0.091838
r -1.064335 -0.793970 -0.617417 -0.479439 -1.378830 -0.867769 -1.067409 0.509200 0.166957 -0.336368 0.067393 -0.856099 -0.746883 -1.076035 0.222159 0.196045 -0.255645 -0.772394 -0.150661 -0.506644 1.281271 -0.198222 0.061773 1.152499 0.425783 -1.743315 0.019911 -0.299594 0.477035 -0.384036 -0.670501 0.699169 -0.381257 -0.252692 -1.572613 -0.039123 0.575365 -0.222109 0.285387 -0.073844 1.514465 0.197028 0.212032 0.096599 0.582859 0.058121 -1.188425 0.494655 1.115383 0.905989
state -0.161674 -0.570090 0.286406 0.176153 0.781157 0.169317 0.211533 1.752710 -0.267202 -0.949355 -0.255793 0.436348 0.698561 -0.167847 -1.470088 0.403773 -0.012189 0.193883 0.054081 -1.062222 0.182450 -1.521404 -0.532560 0.737035 0.500130 -0.592248 -0.499856 -0.779498 -1.115806 0.191916 -0.050179 -0.673926 0.170181 -1.155059 0.175485 0.203156 -0.610170 -0.344473 0.066050 0.193269 -0.090523 1.069282 0.019866 -0.564204 0.786003 0.409807 1.299718 0.251858 1.741150 0.336503
field -0.002619 0.053199 -0.096134 0.083366 -0.691220 0.154518 0.325763 -0.425378 0.375821 -0.001527 0.229100 0.042549 -0.018902 -1.137153 0.313357 -0.552646 0.167224 0.013048 1.001428 -0.056255 -0.120498 0.313357 0.183334 0.230623 0.261344 -1.295944 -0.244979 -0.106246 -0.611730 -0.051550 0.122237 0.257667 -1.222468 -0.751743 -1.893684 0.334868 -0.607959 0.431117 -0.469153 0.281112 0.321213 -0.942868 -0.212904 -0.037499 1.083744 0.476474 1.098919 -0.133475 0.663469 0.613841
would -0.352920 -0.613425 0.157539 0.982959 0.243258 -0.179397 -0.381135 0.685803 0.223527 -0.278584 0.729190 -0.022664 -0.634605 -0.163071 -0.620295 0.529823 -0.158460 -0.032152 -0.459111 -0.158555 -1.024114 0.111276 0.187615 0.091048 0.089634 -0.480524 -0.035433 0.179218 -0.638762 0.341258 -0.316852 0.317617 -0.031943 -2.064518 -0.511330 -0.183115 0.550545 0.471609 -0.450140 0.124118 0.393469 -0.661182 0.135306 -0.299879 1.052223 -0.414195 0.668434 0.540301 0.257381 -0.159920
developed -0.105052 -0.026075 -0.540011 0.061739 -1.187497 0.444357 0.162314 -0.621027 0.433215 -0.443505 1.143920 0.212690 0.546743 -0.416186 -0.592954 1.125260 1.032800 -0.826616 -0.337688 -0.168069 0.392507 0.926314 0.365439 0.537002 -0.107602 -0.436370 -0.354413 -0.110027 -0.446167 0.273466 0.200429 -0.218401 0.613647 -1.582186 -1.088656 0.109976 0.579957 -0.195729 -0.755329 -0.093218 -0.278947 0.516984 -0.102037 0.390958 1.138973 -0.099900 0.041104 -0.179175 -0.044880 0.378273
like -0.831540 0.596605 0.345316 0.648443 1.011120 -0.485129 0.858693 0.958507 -0.191692 0.488236 0.561855 -0.206526 0.163113 -0.538039 0.202672 1.035103 0.720880 -0.340471 -0.431110 -0.367910 0.182511 -0.094949 -0.141910 -0.116850 -0.632572 -1.671379 0.044243 -0.413619 0.304377 0.025086 0.064736 0.303642 0.157388 -0.726842 0.561041 0.270531 0.403364 0.211114 -0.981857 0.162543 0.109040 -0.833327 0.729431 0.094585 0.757138 -0.274085 0.993876 0.086565 0.737287 -0.496588
usually -0.026608 -0.037222 0.113280 -0.182470 0.486032 -0.334760 -0.211897 -1.079794 0.422382 -0.004563 0.854477 -0.330154 0.888688 -0.541743 0.229588 0.485342 0.241802 0.575925 -0.449701 -0.582333 -0.704840 -0.200816 -0.645951 0.364256 0.072987 -0.995924 0.420334 -0.530075 0.307244 -1.102006 -0.240525 -0.041362 -0.381029 -0.403209 0.346149 0.613862 0.519708 0.560511 -0.904107 0.073668 -0.512204 -0.049652 -0.237081 -0.105574 0.814930 -0.480851 0.239236 -0.623094 1.454951 -0.478538
common 0.541463 0.003773 -1.017742 -0.180969 0.099381 -0.031546 0.255774 0.266804 -0.217868 0.331847 0.892240 -0.513796 0.326220 -0.688671 0.571578 -0.950277 0.468468 0.530731 -0.680209 -0.992720 -0.135975 0.245114 -0.516459 0.289551 0.031826 -1.698468 0.054416 0.132983 0.855525 0.097548 0.420386 -0.159605 0.347832 -0.296471 -0.167472 -0.232514 -0.492370 -0.691377 -0.833594 1.016807 -0.556309 -0.864332 -0.316406 0.568374 1.343851 -0.845850 0.566910 -0.096398 0.809409 0.296271
object -0.512563 -1.490352 -1.322740 0.430469 0.280201 1.556961 0.611208 0.740690 0.749731 0.641431 -0.885872 0.290859 -0.329598 -0.329673 -0.652233 0.628306 0.559813 -0.321946 0.023337 -1.224513 -0.118081 -0.113389 -0.890922 0.278478 -0.618699 -0.474569 -0.618658 -1.143896 0.493702 -0.623535 0.417443 0.179783 0.337392 -0.505362 -0.456034 -1.367550 0.462614 0.897521 -1.060084 0.459315 -0.163454 -0.059680 0.093354 -0.326641 0.182403 -0.750012 -0.029728 -0.792645 1.495946 0.672396
given -0.073075 -0.506635 0.083024 -0.176151 0.678881 -0.227899 -0.847601 -0.441289 -0.463229 -1.317761 0.528086 -0.021219 0.580322 -0.191139 -0.227032 -0.578396 -0.354664 0.350841 0.025134 -1.122211 -0.035176 -0.454446 0.326618 0.143802 0.134525 -0.997571 -0.716835 0.056068 -0.511546 -0.154643 -0.370608 0.489999 -1.067410 -0.302024 -0.025467 -0.525423 -0.881382 0.349711 -0.671761 -0.472081 -0.631065 0.363554 -1.134887 0.062231 0.982930 -0.827731 0.076694 0.508323 0.852322 0.650126
mathematics 0.245003 0.766992 -0.210030 -0.682174 0.319907 0.113536 -0.051702 -1.029092 0.505434 0.741458 -0.615147 -0.010955 0.629948 -0.598903 0.330275 0.338195 0.308596 0.368626 1.379518 -0.455433 -0.064869 0.296088 2.063825 -0.611711 0.439975 -0.324535 -0.532641 -0.778806 0.009081 -1.235213 0.265752 1.048505 -0.221813 -1.596661 -1.049169 -0.376135 0.045565 -0.098596 -0.510968 0.495548 0.383386 1.042259 0.314031 0.755642 1.321305 0.587927 1.161604 0.407727 0.225453 -0.354012
another 0.032022 -0.960002 0.116189 -0.007126 0.125587 0.279382 0.368357 0.526621 0.075887 0.320492 0.253673 0.316313 0.496227 -0.789413 0.052225 -0.480731 1.018352 0.036749 -0.422085 -0.983399 -0.959484 -0.227191 -0.500749 0.591905 0.130301 -1.119903 0.196489 0.497064 0.233063 -0.671873 -0.445333 0.576725 0.447463 -1.003522 -0.451085 -0.920159 -0.044733 -0.184999 -0.729722 0.546255 -0.152738 -0.584597 -0.538287 0.304517 0.247735 -0.278712 0.381678 -0.181316 1.568415 0.823736
numbers -0.573447 0.093846 0.277361 -1.210602 -0.667423 -0.034918 -0.659129 0.266952 -0.856148 0.016135 -0.025242 -1.021571 0.315259 -0.617901 -0.131388 0.320841 0.953300 0.052298 0.079990 0.108971 0.134938 -0.242018 0.694663 0.492629 -1.008107 -1.814175 0.002657 1.110299 0.364813 -0.634731 -0.193596 0.298306 -0.722267 -0.604123 0.323876 0.224501 -0.370534 -0.290110 -1.138265 -0.388169 0.357061 -0.375182 1.023051 -0.522384 1.731239 0.245532 0.108445 1.222874 0.846535 -0.236733
objects -1.061149 -0.342330 -0.786597 0.095326 0.742523 1.672652 1.287583 1.003082 0.627690 0.424079 -0.605494 0.054741 -0.406342 -0.686960 0.032099 0.345586 0.336939 -0.327466 1.067369 -0.721203 -0.298714 -0.443085 0.261132 -0.562934 -0.952579 -0.791575 -0.861716 -0.462924 0.878904 -0.865548 1.062109 0.335389 -0.276312 -0.881360 -0.384864 -0.800980 0.406893 -0.561705 -1.576769 0.162505 -0.184224 -0.332906 0.142057 0.574303 0.482796 -0.626985 0.203968 -0.865966 1.552519 -0.336960
p -0.177613 -0.440746 0.027680 1.286923 0.714369 -1.533648 -0.358766 0.304117 -0.389419 -0.634171 0.175608 0.260642 -0.704222 -0.465400 -0.411093 0.316619 -0.550187 0.678778 -0.388344 -0.249628 1.502552 -0.838338 -0.208530 0.436384 -1.027627 -0.951802 -0.716590 -0.367396 0.253141 -0.455928 -1.662022 0.983129 -0.008505 -0.368358 -1.106449 -0.620254 1.391147 0.663284 0.008517 1.033533 0.993848 0.821586 0.353258 0.608050 0.188966 0.792557 -0.013421 0.270189 0.967695 0.474521
study 0.130494 1.112422 -0.116727 -0.353810 -0.252435 0.714664 0.795333 -0.239136 -0.105660 0.215323 0.132490 0.000579 -0.315053 -0.877285 -0.137312 0.196310 0.480999 0.176039 0.747081 -0.249075 -0.623027 0.197529 1.026586 -0.143473 0.477544 -1.073160 -1.029174 0.479361 -0.326728 0.067643 0.533648 0.880649 -1.076901 -1.357696 -1.174077 0.226610 -0.231678 -0.028835 -0.567494 0.319371 -0.106856 -0.778147 -0.035649 0.755540 0.809663 0.683726 1.016245 0.018276 0.692000 0.143754
even -0.019930 0.092594 -0.242178 0.331982 0.521845 0.357530 -1.010389 0.546048 -0.023053 0.767814 0.843742 -0.115422 0.399240 1.079910 -0.971521 0.597354 0.022312 0.614047 -0.731423 -0.602143 -0.345529 0.037725 -0.259099 0.064582 0.142452 -0.404268 0.070002 -0.179681 -0.434858 -0.165086 0.183326 0.024928 -0.215250 -1.148815 -0.210714 -0.831192 0.384046 -0.052046 -1.161448 -0.449767 0.411642 0.013506 0.410854 -0.277602 1.282238 -0.794146 0.635704 0.669689 0.863970 -0.447734
applications -0.118155 -0.046178 -0.491467 0.325943 0.856623 -0.337810 -0.355919 0.152852 0.212416 0.882365 0.643405 0.047393 0.581185 -1.145351 0.333525 0.840015 0.682319 0.471119 -0.264060 -0.464091 -0.137965 0.796647 -0.304530 -1.070607 0.688977 -0.304737 -0.458600 -0.667626 0.385723 1.198047 0.142471 0.359542 0.002033 -0.480701 -0.858436 -0.190942 0.140198 0.153351 -0.690785 -0.141327 -0.446819 0.703341 0.053966 1.086809 1.173815 -0.301187 1.082489 -0.207366 -0.210278 -0.125502
operating 0.255129 -0.777791 -0.697266 -0.553225 0.334539 0.594331 0.446510 0.619032 0.020344 -0.639368 1.920104 -0.316214 1.236059 -0.035291 -0.083246 0.034659 0.104980 -0.322958 -0.158382 0.426098 0.342070 1.472767 -0.597908 -0.809851 -0.435520 -0.089520 -0.504888 -0.224647 0.819936 -0.072471 -0.523121 1.328826 1.192300 -1.436516 0.089538 -0.444414 0.292775 -0.137942 -0.705000 -0.814850 -0.085705 -0.336501 -0.095581 0.600497 1.055181 0.021607 0.942835 -0.022485 -0.234096 -0.236172
security -0.164012 0.311730 0.255527 0.374664 0.862453 -0.141598 0.542397 0.219722 0.354139 -1.527606 0.544318 -0.977491 0.221505 0.530905 0.800030 0.717949 1.189098 -0.689410 -0.019382 0.186731 1.712075 -0.116726 -0.079681 -0.500690 1.574292 0.243655 0.211505 0.615490 0.113046 0.055574 -0.059797 0.011726 -0.590258 -1.147956 0.265259 -0.454409 -0.096860 -0.276322 -0.365372 0.140394 0.178867 -0.751730 -0.537719 0.542934 0.562449 -0.177398 1.513178 -1.314082 0.256687 -0.186379
work -0.232593 0.254596 0.210604 -0.545618 -0.029913 -0.173157 0.120272 -1.125663 1.055916 0.376002 1.068532 -0.595700 -0.342878 0.006068 -0.125993 -0.626829 0.702998 -0.689304 -0.130073 0.344860 -0.218864 -0.161649 0.749810 1.041310 0.701189 -1.397497 0.121136 0.525011 0.400036 -0.124831 -0.063880 0.474280 0.111148 -1.677571 -0.995578 1.013287 0.172624 0.117382 0.206185 -0.130884 0.087471 -0.350053 -1.120548 0.158938 1.191071 0.708102 1.053580 -0.623922 -0.277945 -0.348524
order -0.127388 0.079854 0.049676 1.378613 -0.055520 -0.429944 -0.409170 0.746619 -0.962542 -0.463574 2.030501 -0.653890 -1.036635 0.131155 0.691391 0.435908 -0.645801 0.445792 -0.713909 -1.122987 -0.341972 0.525830 0.802541 0.330528 1.055969 -0.883535 0.108619 -0.260454 -0.102639 -0.141691 0.191715 1.081621 -0.242245 -0.505729 1.058712 0.459193 -0.066097 0.307357 0.419949 0.110765 0.133618 -0.023403 0.222057 0.053476 0.773224 -0.252375 -0.507290 0.146858 1.248056 -0.137977
tree -0.154124 0.336653 -0.444962 -0.342098 0.172175 -0.706815 -0.380796 -0.262177 -0.412683 -0.916596 -0.891277 0.491500 -0.184285 1.434280 0.448775 0.500343 -0.569776 -0.105610 -0.196522 -1.203423 -0.277451 -0.454745 -0.627919 0.160276 1.041910 -1.755375 0.710070 -0.388565 0.908354 -0.265832 -0.033375 1.532746 0.014913 0.736237 0.880577 0.218593 -0.447672 -0.516518 -0.187408 -0.086196 0.384869 -0.500861 -1.384873 0.671062 1.319343 0.102431 -0.716483 1.366124 0.443547 0.425008
based 0.467171 0.566376 -0.044810 0.200481 0.239853 -0.212522 0.453889 0.062564 0.198307 -0.658327 0.966351 -0.206634 -0.053291 0.142174 0.171984 1.074362 0.213399 0.105276 0.067308 -0.887606 0.249800 -0.052780 -0.148274 0.696620 -0.433353 -0.469550 -0.328434 -0.294353 -0.279178 -0.175386 0.832705 -0.325088 0.530981 -0.290097 -0.606934 -0.615052 -0.247325 0.135362 -0.713227 0.122906 -1.022338 0.175868 0.049867 0.692324 1.327380 0.092340 0.423123 -0.526739 1.243927 -0.167918
value -0.082291 -1.479564 0.606857 0.030155 0.219818 -0.723583 -0.196555 0.210288 -0.175387 -0.655388 -0.259654 -0.609985 0.453412 0.334138 0.726103 0.631076 -0.855140 -0.029152 -0.009017 -1.467075 0.518122 -0.870302 -0.602162 -0.766454 0.236088 -0.715838 -0.400917 0.038181 -0.383342 -0.846674 -0.829619 0.114283 -0.058812 -0.097532 -0.435426 -0.330428 -1.513155 0.667550 -1.203510 -0.578527 0.108168 0.285443 -0.653647 -0.256200 1.091045 -1.324562 -0.284555 0.890953 1.057056 0.205178
term 0.548960 -0.723220 0.662516 0.003423 -0.057980 -0.332997 -0.071363 -0.631973 -0.654329 0.700359 -0.067737 0.837856 1.331359 -1.147205 0.426447 -0.120185 -0.546739 -0.989970 -0.657922 -1.354828 0.296224 0.581131 1.320572 -0.410510 0.326766 -0.776642 0.346105 -0.535116 -0.588138 -0.065651 -0.220344 0.693157 -0.770509 -0.610518 -0.708235 -0.158187 -0.007390 0.222209 -0.570608 -0.254580 -0.688931 -1.330645 -0.894778 0.921899 0.519330 0.545738 -0.171303 0.130730 1.128205 -0.476438
see 0.271773 -0.319023 -0.562205 0.328638 0.398614 -0.316388 -0.005372 -0.473557 -0.067365 -0.016503 0.434419 0.333463 0.357427 0.330606 0.249203 -0.080203 1.232746 0.099081 -1.200482 -1.210901 0.284003 -0.679897 -0.023075 -0.083459 1.147349 -0.905311 -0.874829 -0.683697 -0.151010 -0.592099 0.442668 0.059380 -1.247847 -0.968025 -0.394116 -0.204298 0.002714 0.609074 -0.938618 0.233855 0.638195 -0.073071 0.471845 -0.057064 1.127207 0.223125 0.360527 0.290864 -0.721225 0.276050
possible 0.161151 -0.317694 0.867358 -0.326797 0.922466 -0.286262 -0.938202 0.657820 0.082410 -0.316806 1.027790 -0.327096 0.756422 0.418952 -0.800336 -0.347556 -0.462680 0.158090 0.213090 -1.141469 -0.525028 -0.437562 -0.018756 -0.751397 0.023763 -0.121494 -0.635730 0.530497 -0.377458 -0.137535 0.229461 -0.583205 -0.154041 -0.908497 -0.239177 -0.493228 -0.562686 -0.203930 -0.791479 -0.195020 0.446647 -0.146757 -0.239262 0.078464 1.726263 -0.713385 0.791664 0.555952 0.599392 0.504182
an 0.474851 -0.825565 -0.693844 -1.105313 0.516388 0.206570 -0.608423 0.546494 0.170714 0.135403 0.327231 0.366350 -0.228962 0.008017 -0.197934 0.844473 0.558116 -0.783619 0.423324 -0.908548 -0.745120 -0.173817 -0.582168 0.120971 0.448312 -1.131073 0.151048 -0.969648 0.289199 -0.973026 -0.282086 0.320116 -0.404755 -0.348922 -0.843721 -0.711023 -0.277389 -0.647682 -0.441248 -0.187002 -0.953363 0.690002 -0.062150 0.698708 1.066653 0.830554 0.472737 -0.036273 0.263198 0.023650
could -0.592314 -0.308357 0.364352 0.342640 0.026767 -0.399346 -0.029104 0.280296 0.722741 -0.392370 0.944824 -0.491698 -0.127702 -0.697343 -0.305384 0.301430 0.472479 -0.449867 -0.875406 -0.922462 -1.267732 -0.049873 0.664383 -0.207232 0.053987 -0.669677 -0.196952 0.551624 -0.989439 0.149945 -0.059341 0.320004 0.515280 -1.430156 0.260731 -0.239735 0.011477 -0.245228 -0.856034 -0.304134 -0.012101 -0.344297 -0.030840 0.035010 0.447343 0.091167 0.783873 1.050831 -0.097340 -0.052166
human 0.027235 0.248861 -0.481463 0.782859 0.681046 0.081833 -0.062420 0.255577 -0.653953 -0.557703 1.499574 0.483798 0.091684 -0.960651 0.163519 0.717193 1.378672 -0.766874 0.388688 0.033670 -1.240278 -0.302170 -0.256531 0.279737 -0.016710 -0.663001 -0.385915 1.126713 -0.563340 -0.436712 0.152181 -0.821923 -1.042656 -1.135065 -0.182884 0.081664 0.014634 0.790736 -0.499614 -0.739756 0.468133 -0.161319 -0.096358 -0.235615 -0.026463 0.139787 1.189187 0.096100 -0.490007 0.648665
defined -0.016123 0.010383 0.178964 0.862952 0.698486 -0.180928 0.015569 -0.520009 -0.033805 -0.256823 0.321500 0.021741 -0.241554 -0.234849 0.391547 0.158468 -0.501786 -0.892524 -0.279389 -0.109521 -0.037829 -0.717237 -0.249278 0.159811 -0.570083 -1.973914 -0.349253 -0.377025 0.389954 -0.801705 0.557051 0.701188 0.387644 0.118966 -0.089717 -0.016565 0.015171 -0.553288 -1.045111 0.021664 -0.310448 -0.254850 -0.283997 0.432364 0.847823 0.567523 -0.359530 0.112914 1.869416 0.585248
formal -0.057608 0.564078 -0.722417 0.607262 -0.225374 0.675210 -0.010358 -1.587445 0.195860 0.105293 0.585681 0.251216 -0.037753 0.396413 -0.191657 0.151615 0.197710 -0.297507 -0.286397 -0.698443 -0.260190 1.074524 0.873969 -0.678446 0.680364 -0.557474 -0.738744 -0.559248 -1.074221 -0.612408 -0.085486 0.130893 -0.019655 -0.225385 -0.084634 0.707151 -0.200137 -0.864126 -1.034305 -0.102203 -0.571790 0.432655 -0.619301 0.378164 1.313695 0.830213 0.201920 -0.354773 1.652250 0.266766
since 0.174607 -0.508165 -0.295342 0.628961 0.439632 -0.820845 -0.399349 -0.519312 0.412267 0.129519 0.225557 0.188655 0.543045 -0.296850 -0.121734 0.680357 0.468354 -0.134959 0.317981 0.160062 0.304400 0.379667 0.925694 0.162096 -0.408715 -1.086412 0.296567 -0.432281 0.170098 0.237034 -0.330754 -0.302981 0.634403 -0.779371 -0.772351 -0.639313 -0.207258 0.306258 -0.066431 -0.012063 -0.270729 -0.421727 -0.371049 -0.034700 1.749598 -0.787978 0.955085 0.473732 1.072205 0.418724
turing -0.121489 0.058487 1.089880 -0.142942 0.860525 -0.357185 -0.955704 -1.148964 -0.024898 -0.351655 1.008531 0.907451 -1.367267 -0.103454 -0.436074 -0.755216 0.375452 -1.229420 0.367231 -0.160804 0.336391 -0.599225 0.246469 1.178617 -0.795757 -1.372014 -0.826468 0.802390 -0.285622 0.508298 1.483057 1.173932 -0.318937 -0.645697 0.448385 -0.465074 0.177358 0.351713 -1.135825 0.131448 -0.837162 0.776439 -0.568696 -0.366807 1.001558 1.680440 0.660194 0.505989 -0.826004 0.197351
o 0.178526 -0.425272 1.547893 0.340607 0.150268 -2.163326 0.157002 -0.129095 -1.293882 0.977564 0.283386 0.408402 -0.391756 -0.526015 -0.651737 -0.235776 1.659790 -0.528037 -0.675040 -0.556061 -0.062119 0.341503 0.625993 0.067386 0.143875 -1.216590 -0.716090 -1.275740 0.511577 0.061923 -0.113715 0.255986 0.604439 -0.527613 -0.085265 0.797140 0.186493 0.169519 -0.354828 -1.582046 0.133290 0.717082 0.182420 0.211407 0.005692 -0.007744 -1.298261 0.544694 1.051516 -0.074968
general -0.893559 -0.233369 -0.352208 0.572301 -0.526457 0.324458 0.503037 0.168448 -0.117460 -0.317834 0.806682 0.638034 0.676302 -0.337131 -0.058627 -0.200266 0.512047 0.307611 0.087289 -0.960099 -0.152956 -0.058853 0.520500 0.865991 0.103073 -0.532693 -0.519869 0.219003 0.845668 0.286373 0.335083 -0.198854 -1.340330 -0.593530 -0.325263 -0.340413 0.083302 -0.385336 -0.450052 -0.410509 -0.019742 -0.020467 -0.819012 1.145336 1.304038 0.287590 0.393013 0.691234 0.402928 0.558079
computation 0.049512 -0.427792 0.260260 -0.453171 -0.336585 -0.031951 -0.207303 -0.016176 0.817765 -0.659990 0.663971 0.231124 0.191864 -0.489876 1.148714 0.443815 -0.115510 0.707528 -0.373782 -0.670230 -1.020077 -0.375614 0.372803 0.828406 0.233388 -1.167575 -0.778093 -0.772229 -0.647724 0.571548 0.460174 0.086476 -1.160537 -0.112534 -0.858477 0.401179 -0.610748 1.088648 -0.469355 -0.175880 -0.535740 0.901868 -0.122792 0.236232 1.540418 1.416368 -0.201969 0.222254 0.113560 0.256484
algebra -0.202584 -0.946745 -0.944382 0.238514 -0.229663 -0.170960 -0.584918 -0.175513 0.262952 -0.330373 -0.475030 0.215984 0.246978 -0.755104 1.158357 0.840848 -0.468411 -0.044431 -0.068061 -0.025135 -0.542265 0.123104 1.616952 -0.543889 -0.060124 -0.617037 -0.749595 0.038382 0.447270 -0.563979 0.675450 0.598087 0.290917 -0.387644 0.044102 0.397192 0.479973 1.712469 -0.334343 0.473651 0.219035 0.116660 -0.795700 0.648231 1.366356 0.804538 -0.190257 1.673327 0.319719 -0.408321
access 0.147012 -1.107501 -0.579768 0.592658 0.910120 0.891679 0.597560 0.641203 0.056549 -0.442347 1.283383 -1.154645 -0.158771 0.998238 0.493409 0.110743 0.672244 -0.561622 -0.820547 -0.598547 -0.697765 0.156074 -1.163111 -0.708143 -0.240236 -0.579256 0.075777 -0.306028 0.073345 -0.231943 -0.127061 0.628474 -0.778948 -1.045889 0.177778 -1.250645 -0.012741 1.161414 -0.269314 0.374051 -0.305066 -0.375486 0.103579 -0.017480 -0.512388 -0.742123 0.567872 -1.056375 0.691367 -0.578273
k 0.660477 -1.003272 1.017952 0.696674 -0.202316 -1.147567 -0.568624 0.116315 -1.309928 -0.149214 0.148228 -0.479257 -0.871359 -1.207986 0.013987 -0.328256 0.717862 0.148501 -0.568043 -0.678354 1.411847 -0.499860 -0.438818 0.201067 0.101985 -0.657584 -0.089351 0.168451 0.372906 0.463488 -1.307675 0.296751 -0.834073 -0.844027 -0.902325 -0.079713 0.934082 1.334601 -0.097811 -0.672958 1.170352 0.600742 0.913082 -0.146413 0.409120 -0.160284 -0.951029 -0.924817 0.083553 0.522528
way -0.167798 0.062043 0.175209 0.403293 0.311455 0.032771 -0.068006 0.521861 0.335649 0.020185 0.809637 -0.111704 0.391884 -0.691031 0.574727 0.012419 0.583815 -0.313054 0.150820 -0.711860 -0.824877 -0.405650 -0.029233 0.176271 0.013904 -0.421804 -0.658701 0.356813 -0.464172 -0.489998 0.496729 0.109750 0.094764 -1.563713 0.376519 -0.533393 -0.157214 0.170933 -0.162488 -0.056038 -0.112964 -0.808689 -0.525042 0.046174 1.128625 -0.595338 -0.045409 0.182617 1.029611 0.213373
operations 0.330456 -0.529534 0.676249 0.589928 0.704222 -0.783073 -0.216156 0.710469 0.403296 -0.182690 0.397528 0.050446 -0.490855 -0.035119 0.727606 1.274322 -0.506086 0.056641 -0.282933 -0.107149 -0.344052 0.377664 -0.065912 -0.327902 -0.263520 -0.923176 -0.833461 0.729691 0.203368 -0.797952 0.080308 0.017685 -0.271606 -0.381548 0.558521 1.429502 0.372761 0.149188 -0.967375 1.089623 0.837168 -0.890130 0.323472 -0.111046 1.186804 0.653684 0.472485 1.422014 1.080825 -0.404157
key 0.806040 -1.839816 0.976199 1.024103 0.399721 -0.704583 -0.637542 0.443034 0.064742 -0.073438 0.144238 -1.414104 0.687074 0.223502 1.192181 0.344036 -0.692118 0.165712 -0.343536 -1.733705 1.010398 0.518070 0.504014 -0.381305 0.565705 -0.040902 0.132784 0.945403 -0.563849 0.258632 0.082233 -0.696872 -0.685025 -0.037528 -0.631667 -0.025548 -0.560111 0.352624 -1.079212 -1.170165 0.000823 -0.574319 -0.052848 0.045779 0.744944 -1.321604 0.241377 -0.459320 0.221506 0.625447
sets 0.073199 0.789720 -0.587155 0.028760 1.395881 -0.705691 -0.270820 -1.059454 0.134670 -0.033281 -0.044099 -0.585582 -1.680474 -0.079722 -0.257918 -0.125017 -0.178626 -0.382312 1.018889 -0.312329 0.506800 -0.253200 0.697799 0.068814 -1.249887 -0.592808 -0.710616 0.477443 0.883483 -0.841953 1.236179 1.320573 -1.070607 -0.840616 0.489627 -0.150615 -0.098109 0.248498 -1.466718 -0.088780 0.071531 0.337072 -0.155399 -0.415184 1.033818 -0.530540 0.467151 1.018153 0.969492 0.108173
complexity 0.505786 0.495276 1.483988 -0.226457 0.564630 -0.987095 1.252945 -0.172703 0.723812 0.564047 0.462915 1.637094 -0.676995 0.757228 0.025297 -0.476753 -0.135007 0.568999 -0.073484 -0.320972 -0.098936 1.270420 -0.582375 0.978182 -0.358034 -1.074073 -0.041770 -0.721586 0.446430 -0.558424 0.142844 0.858950 0.150270 -0.467356 -0.859435 -1.173507 0.173831 -0.269178 -1.020827 -0.082338 0.918973 1.125679 0.418878 0.771034 1.260793 1.095953 0.323602 0.163345 0.951834 0.212359
large 0.005574 0.767929 0.293548 0.346590 0.058223 -0.816838 -0.204631 0.290247 0.010746 0.483851 0.459551 -1.264354 -0.165885 -0.840658 -0.317088 -0.486684 0.719948 0.968477 0.175348 0.437812 -0.952545 0.490548 -1.019359 0.376798 -0.242648 -0.601714 -0.164384 0.287981 0.378501 0.200679 0.193753 0.602211 -0.855231 -0.569629 -0.774226 0.350048 -0.310999 0.979716 -0.735456 -0.997213 0.467496 0.113270 -0.483538 0.561138 0.970087 -0.769064 0.552744 -0.093457 1.391937 -0.490636
input -0.278400 -0.178229 0.377770 -1.038512 0.555490 -0.266430 -0.704906 0.187239 0.108446 -1.254301 -0.081830 0.378562 0.535910 -0.335339 -1.263351 -0.078120 0.270537 -0.239210 0.225012 -0.296312 -0.149209 0.817882 -0.819457 0.137781 0.143371 -1.235137 -0.475018 -0.613811 0.023141 -0.729258 -0.572705 -0.400036 -0.903055 -0.032577 0.375661 -0.486267 -0.382546 -0.529638 -0.856533 -0.663302 -0.382859 0.759616 -0.015727 -1.121932 0.312149 -0.366615 0.459765 0.103402 1.722366 0.050149
hardware -0.072644 0.038603 -0.153078 0.585539 0.335453 -0.028754 -0.129213 0.231491 0.486644 -0.460605 1.496292 0.273977 1.571316 0.086667 -0.220336 0.138952 0.718910 0.170475 -0.613691 0.411954 -0.116982 1.398069 -0.914909 -0.309206 -0.081984 -0.348129 0.008149 -1.010210 0.270930 -0.542463 0.163629 0.617667 -0.043284 -0.873235 0.668335 -0.051061 0.481684 0.599417 -1.065473 0.807723 -0.303176 0.111783 -0.907341 0.132289 -0.172094 0.290950 0.951138 -0.340430 0.904374 -1.180513
hash 0.411911 -1.437702 1.470925 0.632559 0.534043 -0.665197 0.308597 0.094340 0.436020 0.259424 -0.369443 0.641239 0.321978 -0.300039 0.543228 0.261951 1.040512 0.029082 0.772487 -0.776376 0.790468 0.266494 -0.667681 -0.490282 0.993968 -0.886886 0.130457 1.008488 -0.582476 0.140897 0.283992 -0.711317 -0.114324 -0.630533 1.037924 0.335043 -0.082292 -0.224992 -0.079249 -0.761369 0.790474 0.506181 0.502323 0.005452 1.103761 -1.761615 -0.787885 -0.221081 0.468846 -0.347839
structures 0.698788 1.243333 0.441397 -0.038327 0.509256 -0.047581 0.179480 1.045910 0.192918 0.077567 -0.205129 -0.150184 -0.106790 0.545352 0.391067 1.061613 0.300608 -0.262419 0.100821 -1.487993 -0.035180 -0.261472 -0.804228 -0.798408 0.395571 -0.969789 -0.180975 -0.865234 0.063183 0.174062 0.790578 0.676577 -0.807007 -0.699187 0.805452 0.358217 0.370465 -0.043791 0.204791 0.749249 -0.122801 -0.096711 0.002640 0.103381 1.869128 -0.673764 0.212418 -0.144881 0.935992 0.081540
values -0.075079 -1.057036 0.770241 0.056653 0.203700 0.511682 -0.258593 0.443226 -0.067449 -0.509229 -0.497561 0.007050 0.050714 -0.100087 0.381399 0.865343 -0.208675 -0.702794 -0.060602 -1.033665 -0.227995 -1.099845 0.151986 -1.108120 -0.279260 -0.367102 -1.062107 0.375916 0.086147 -1.051788 0.334657 0.105426 -0.823097 -1.025199 -0.294529 0.197992 -0.533188 0.322816 -0.819350 -0.469295 0.428816 0.014889 -0.022458 -0.028013 1.336863 -1.235508 -0.783123 1.036878 1.099023 -0.645400
several 0.467071 -0.413097 -0.604690 0.297536 0.397656 -0.378685 -0.053015 -0.497521 0.384843 0.060655 1.086519 0.085497 0.438674 -0.900702 0.744444 0.500588 -0.392380 0.685879 -0.097929 0.151429 -0.273773 0.127864 -0.038587 0.389104 -0.222430 -0.303757 -0.441941 -0.242038 0.562463 0.179978 0.454881 -0.893036 -0.734955 -0.886915 -1.030517 1.060454 -0.356428 -0.314166 -0.887409 0.452283 0.167229 0.396221 -0.028993 0.791278 1.021091 -0.603380 0.305230 -0.059604 0.677974 -0.723758
there 0.506400 0.033698 -0.751872 0.240651 0.744406 -0.054463 -0.643073 -0.423202 0.479412 -0.098570 0.351579 0.136813 0.429201 -0.692042 0.711798 0.370130 -0.405924 0.758976 -0.459123 -0.166124 0.288192 -0.210747 -0.208479 -0.033785 0.002107 -0.407008 -0.940600 0.238447 0.591016 0.514747 0.194887 0.191939 -0.628413 -0.673447 -1.383750 0.744142 -0.484075 -0.037459 -0.465372 0.704903 0.380759 -0.159129 -0.117151 0.915369 1.498660 -0.524019 0.203833 -0.016731 0.332073 -0.484385
processing 0.887741 0.058185 -0.488224 -0.883157 -0.473438 -1.113224 0.110217 0.063517 0.841441 -0.598772 0.906201 -0.372129 0.520478 -1.178785 -0.046720 0.493901 1.434716 1.332425 0.253796 0.191451 -0.601300 0.524211 -0.337345 -0.095368 0.212419 -0.237312 -1.070049 -0.870719 0.650946 0.141064 0.242157 0.172227 -0.948587 -1.007703 -0.155669 0.301478 0.831231 0.878409 -0.870594 -0.061158 -1.348352 -0.155804 0.820273 -0.724593 0.219877 -0.105471 0.993003 -0.333681 0.290877 0.021817
early 0.292111 -0.194110 -0.531931 -0.740151 -0.702396 -0.113948 0.350014 0.305852 0.693824 0.199976 0.935153 -0.269645 0.043792 -0.344145 -0.714725 0.240393 0.457009 -0.737204 -0.277228 -0.325920 -0.344310 0.905086 0.695490 0.009083 -0.458331 -1.251217 0.336831 -0.305411 0.858905 0.361252 -0.664771 0.045489 0.910927 -1.078848 -1.598534 -0.449792 0.474211 -0.687425 -0.329509 0.824925 -0.894123 -0.204154 -0.208733 0.349533 0.630222 0.202825 1.595487 0.420857 0.092368 0.198457
modern 0.380413 -0.131780 -0.242627 -1.148591 0.058678 -1.127497 -0.274009 0.233571 0.739565 0.694613 0.956462 -0.026029 0.732252 -1.217038 0.776175 0.887214 -0.304848 -0.377916 0.343648 -0.748815 -0.219039 1.197576 0.746220 -0.096283 0.022893 -0.507881 -0.144270 -0.310989 0.674403 -0.049804 -0.200256 0.865949 0.395828 -0.553850 -0.579074 -0.666199 0.133633 0.120642 -0.357361 0.596385 -0.625873 -0.237005 -0.307260 0.751433 0.969920 -0.450231 1.539686 0.517690 0.229407 -0.771781
well -0.293102 0.021605 -0.116582 0.203502 0.451545 0.183652 0.283543 -0.383880 0.123066 0.088913 0.361191 -0.161462 0.366632 -0.350687 0.399774 0.101506 0.234069 -0.132504 -0.369634 -0.204023 0.358768 0.443182 -0.414288 0.071314 0.210775 -0.284378 -1.123189 0.344108 0.008018 -0.060744 0.822876 0.669822 -0.001893 -1.063067 -1.027942 0.080491 -0.192351 0.156632 -0.697276 0.119603 -0.243651 0.393039 0.372138 -0.171672 0.824945 -0.099650 0.696895 -0.037166 0.777284 -0.074460
including -0.005466 -0.151432 -0.827730 0.197431 0.221862 0.121373 0.098486 -0.372919 0.108530 0.099323 1.196683 -0.549309 0.143242 -0.479811 -0.041959 0.777729 0.599052 0.002024 -0.396740 0.033780 0.548245 0.468271 0.069407 -0.054111 -0.083483 -0.528753 -0.720281 -0.233484 0.689144 0.583423 0.304056 0.089209 -0.847222 0.186981 -0.406032 0.368098 -0.549825 0.158689 -0.930708 0.410696 0.096338 0.345053 0.634375 0.940368 0.746689 -0.286431 1.192620 -0.344605 0.243173 -0.114371
compiler -0.175560 0.437514 -0.189194 -0.606624 -0.494951 -0.411157 -0.706814 -0.226426 1.348971 -0.769586 1.843854 0.083879 0.732818 -1.356545 -1.380303 0.192642 -0.834241 -0.705854 -0.840342 -0.912143 -0.652156 1.159609 -0.624183 0.334147 0.429914 0.042996 0.000534 0.435790 -0.700497 -0.294624 -0.315831 0.422487 0.279432 0.392835 -0.972191 0.492608 0.141092 -0.405662 -0.919008 0.534749 0.305713 -0.152476 -0.512235 0.556804 -0.325767 0.781875 -0.051486 -0.920164 0.159266 1.045358
these -0.206194 0.363048 -0.630422 0.976743 0.780514 -0.064589 0.455928 -0.162955 0.879150 -0.602334 0.793922 -0.885532 -0.174400 -0.572033 0.298681 0.810203 -0.486555 0.309944 -0.439349 -0.485822 -0.212153 -0.194203 -0.007590 0.138444 -0.294523 -0.862872 -0.499358 0.270552 0.412008 0.504452 0.215988 -0.190474 -0.554963 -0.866225 -0.252603 0.545062 -0.663711 -0.492326 -0.703992 0.305240 -0.387666 0.308704 0.230315 0.252471 0.948116 -0.049769 0.590284 0.382822 0.249201 -0.373281
must -0.862460 -0.318248 -0.150460 1.027088 0.620307 0.131201 -0.725304 0.260577 0.395380 -0.183710 0.506574 -0.968850 0.708238 0.667034 -0.152084 0.186733 -1.041739 -0.648696 -0.552653 -0.277329 -1.138016 -0.150234 -0.065028 0.287686 -0.032733 -1.239379 0.437007 0.068025 0.524123 -0.230836 0.322799 0.007655 -0.371914 -1.242636 0.063798 -0.202021 -0.294967 -0.047289 -0.346116 -0.510854 0.104048 -0.165310 0.043932 -0.721850 0.805191 -0.620278 -0.279405 0.589686 0.957861 0.720283
within 1.099301 -0.937722 0.274653 0.512325 -0.055933 0.562535 0.643831 -0.126017 0.206070 0.141879 0.159834 -0.201394 0.071295 0.319792 0.190855 0.255490 0.244639 -0.183678 0.281591 0.492740 -0.183099 -0.117961 -0.433320 0.094858 0.153565 -0.559032 -0.750587 -0.426699 -0.068446 -0.112702 0.185349 0.258052 -0.959361 -1.013014 -0.480065 0.426664 -0.329143 0.041270 -0.752929 -0.702312 -0.177744 -0.315204 -0.417271 0.338741 0.443090 -0.408739 0.632738 -0.500164 1.494755 0.122603
control 0.318534 -0.752140 -0.190223 0.566976 0.692332 1.243985 0.418124 0.342796 1.133584 -0.455300 0.972377 0.179302 -0.172021 0.630322 1.035904 1.536908 1.084766 -0.531036 -0.178738 -0.865050 -1.108137 0.419734 -0.035867 0.146271 0.469223 -0.102827 -0.242352 0.404476 0.536489 0.197620 0.212767 1.097667 -0.307438 -1.281191 0.478992 0.097172 0.249365 0.484946 1.031871 -0.040065 -0.636510 0.146796 0.262868 -0.191032 0.549527 0.250431 0.677532 -0.490818 0.526650 0.278486
university -0.203152 0.682017 0.495047 0.083968 -0.423136 0.341388 -0.158906 0.216445 -0.096501 -0.519087 -0.340172 0.734541 0.925433 -0.305184 -1.060877 1.027356 -0.675901 -0.690341 1.047505 -0.515825 0.803995 -0.145533 0.462902 0.202938 0.959894 -0.715238 0.713032 -1.346140 -0.544153 0.535497 -0.126293 -0.497733 0.579714 -1.276321 -1.158642 -0.440017 0.431218 0.063832 -0.177861 -0.026197 0.006375 2.136808 -0.557402 0.042065 0.146556 -0.452662 1.202483 -0.149497 -0.037105 0.649363
table 1.534605 -2.140182 0.883327 1.038066 0.354874 -0.581188 0.051388 0.570897 0.905140 -0.045095 -0.409394 0.417162 -0.529044 0.189425 0.499690 0.014848 0.263007 0.170469 -0.042411 -0.855080 0.063160 0.341870 -0.476412 0.098080 1.132939 -0.697665 0.153476 0.970891 -0.532272 -0.202678 -0.271897 -0.477653 0.169165 -0.757760 1.047360 0.083840 0.116242 -0.037000 -0.483717 -0.275217 1.356954 0.025770 0.292558 0.129245 1.066840 -1.133752 -0.421960 -0.844921 1.233022 0.382315
particular -0.381843 -0.036411 0.277016 0.530764 -0.010573 0.496384 0.758491 -0.545513 -0.346382 0.234158 0.642573 -0.326606 0.071011 0.149744 -0.049443 -0.351461 0.505106 0.038149 0.090108 -0.811728 -0.433262 0.604298 0.527650 0.042565 0.280306 -0.681218 -1.156769 -0.224272 0.517602 -0.176449 0.051594 0.501649 -0.067331 -0.838284 0.206906 -0.406932 -0.075732 0.055718 -0.016265 0.026120 -0.092401 0.148318 -0.829282 0.190532 0.887430 -0.137796 0.566040 0.057835 1.553279 0.252785
single 0.347197 -1.295078 0.287448 -0.281362 0.096984 -0.269364 0.099917 -0.172498 0.585295 0.078072 0.476529 -0.400416 0.588295 0.267189 -0.516092 1.378957 -0.185820 0.173927 -0.621144 -0.789406 -0.670426 -0.149081 -0.561580 0.281583 -0.001844 -0.118869 -0.165111 0.391999 0.855576 -0.130352 -0.079421 0.537786 -0.601259 -0.552610 -0.031912 -0.024557 -0.201928 0.068070 -1.297882 -0.144857 -0.112084 -0.102002 -0.422814 0.220683 -0.171663 -0.754526 -0.160567 0.360600 0.501510 0.503969
application -0.297016 -0.183826 -0.089007 -0.037838 0.638153 0.523197 0.103900 0.036666 -0.905778 0.564470 1.143135 0.135137 0.766043 -1.109574 0.376145 0.541230 0.239813 -0.183657 0.055675 -0.180049 -0.716749 0.560775 -0.730717 -0.670226 0.533044 0.217556 0.300809 -0.891423 0.532699 -0.107322 0.193736 0.411115 0.155336 -0.634950 -0.592327 -0.209292 -1.019384 0.536984 -0.589770 0.002641 -0.758669 -0.627351 -0.826575 0.981817 0.471554 0.267567 0.046260 -0.287374 0.844125 0.510124
case -0.274453 -0.688926 0.836292 0.339382 0.367806 -0.448880 0.254403 -0.866517 -0.566371 0.148033 0.605525 0.042720 0.209592 0.258261 -0.768116 0.364313 0.561296 0.683904 -0.079758 -0.829608 -0.490502 0.076342 0.134455 0.410987 0.456297 -0.641221 0.511482 0.185802 1.135247 -0.690823 0.050994 0.150927 -0.173156 -1.010852 -0.117513 -0.189452 -0.392533 -0.171746 -0.418520 -0.258773 0.329582 0.180176 -0.506181 1.003098 0.666217 -0.322761 -0.431739 1.165068 0.648894 0.403092
techniques -0.270786 1.049552 0.085155 0.564583 0.532118 0.184311 -0.299777 0.093979 0.565014 0.381843 0.451777 -0.301281 0.475563 -0.481258 0.083988 1.275223 0.218898 0.830676 0.192302 -0.840430 -0.444611 1.117315 -0.754414 -0.206389 0.598543 -0.387539 -0.224698 0.069222 0.048694 0.617038 0.647868 -0.327503 -0.572900 -0.181477 -1.294788 0.038783 -0.268492 -0.249132 -0.523538 0.104425 -0.764381 -0.497231 0.499736 0.577720 1.263725 0.174682 0.400242 -0.254698 0.097352 0.251342
h -0.551169 0.033954 0.282755 0.257927 -0.271751 -0.941210 -0.674261 0.654480 -1.572425 -0.490540 0.478106 -0.436820 -1.373332 -0.758524 0.449823 0.090054 0.086229 -0.015823 -0.150778 -1.294931 0.641189 0.174298 1.187882 -0.602371 0.274968 -0.484957 0.081871 -0.856441 0.020569 0.073168 -1.930475 0.808537 0.193366 -0.495444 -0.014643 -0.087971 1.180162 0.888512 0.196258 -0.560002 0.311040 0.534075 0.024786 0.226732 0.405776 0.964416 -1.137821 -0.358299 0.701961 -0.113160
multiple 0.639858 -0.570020 0.329628 -0.347677 0.528109 -0.815577 0.226204 0.573360 0.714250 0.323980 1.516780 -0.297459 0.294576 -0.253198 -0.123793 -0.056981 -0.037784 0.461967 -0.808128 -0.825184 -0.721221 -0.332899 -0.804481 0.747737 -0.551131 -0.455156 -1.137592 -0.061995 1.542345 0.207650 0.428955 0.248652 -1.237443 -0.266785 -0.522395 -0.408276 -0.427302 -0.859030 -0.573313 0.013258 -0.687898 -0.007463 0.631074 0.562837 -0.633477 -0.554569 -0.229187 0.405378 0.375793 -0.150256
distributed 0.565677 -1.554432 -0.446520 -0.088239 0.476210 0.035207 0.657667 0.843994 0.367679 -0.201526 0.373448 -0.266096 1.002393 0.073045 0.902625 -0.770402 0.402521 0.334228 1.026951 -0.327242 0.067565 0.734651 -0.476134 -0.512035 0.237819 -1.194014 -1.151924 -1.133294 1.272861 0.650501 0.292688 -0.472496 -0.841399 -0.957983 -0.447572 -0.288364 0.798639 -0.294067 -0.529821 0.047830 -0.534260 1.168714 -0.598101 0.468765 0.090835 -0.116839 0.089869 -1.039801 0.229543 0.367732
states 0.397949 -0.458936 0.308743 0.506170 0.778019 0.167007 -0.849389 0.913420 -0.179997 -0.893063 0.069007 -0.625131 0.074121 0.252774 -1.068002 0.257481 -0.123635 0.441905 0.507526 -0.329077 1.066302 -1.096004 0.763490 0.167404 0.186343 -0.363834 0.163515 -0.220061 -0.618456 0.742433 0.195733 -0.163473 -0.418464 -1.267757 0.159661 0.059928 -0.579940 0.043050 -0.110024 -0.073998 -0.954198 0.611089 0.208484 -0.337026 0.905398 0.360525 1.575625 0.627388 1.031988 -0.387978
test -0.349769 1.176940 1.621382 0.767554 -0.263606 0.551568 -0.464708 -1.199990 0.088401 -0.559066 1.708320 -0.333837 -0.188890 -0.118866 -0.072607 -0.264414 -0.324609 0.209980 -0.147462 -0.585992 0.175521 0.190144 -0.083704 0.360901 0.388478 0.570313 0.713327 0.892924 0.921876 -1.110849 0.294914 -0.738096 -0.315481 -1.128656 0.559261 -0.744544 -0.468920 -1.227914 -1.246974 -0.216068 -0.749385 -0.602160 -0.587302 0.466557 0.343363 0.103663 -0.935178 -0.084741 0.419978 0.024658
complex -0.756257 0.581649 -0.719556 -0.612923 0.049475 -0.571176 -0.336603 0.284471 -0.427975 0.176800 0.789285 -0.646015 0.838706 -0.205793 -0.388278 0.542403 0.996823 0.327765 -0.386498 -0.473435 -0.681294 0.423013 -0.161861 0.604387 0.103842 -0.609352 -0.475639 0.829349 0.289680 -0.482159 0.495519 0.110151 -0.413692 -0.249021 -0.476156 -0.635640 -0.419739 0.759935 -0.188958 0.034233 0.252032 -0.215680 0.175444 0.080028 1.085970 -0.429674 0.222941 -0.050959 1.022794 -0.787683
typically 0.141208 -0.438741 0.066299 0.023308 1.098994 -0.480250 -0.151019 -0.300390 0.348639 0.012948 0.482934 -0.242036 0.098635 0.087739 -0.209031 0.949947 0.416441 0.182766 -0.444037 -0.438920 -0.445508 0.354771 -0.862605 0.192178 0.143133 -0.524605 0.275339 -0.391528 0.160202 -0.169398 0.078324 0.401609 -0.561903 -0.391433 -0.318131 -0.029271 -0.455768 -0.004801 -0.721980 0.146633 -0.871823 -0.069694 -0.669390 0.414616 0.236387 -0.501386 -0.264231 -0.457584 1.021002 -0.338976
natural 0.003599 0.763664 -0.545835 -0.905019 0.014989 -0.285297 0.147798 -0.578527 -0.644049 0.890907 0.664492 -0.158094 0.248809 -0.730004 -0.287951 0.548975 1.312647 0.204905 0.088218 0.024727 -0.065411 -0.327426 0.949345 0.028844 -0.716019 -1.162452 -0.454523 0.184570 -0.437707 0.402779 0.145427 0.519383 -0.759466 -0.166075 0.729609 0.261777 0.022888 0.307742 -1.237920 -0.183212 0.056837 -0.594922 0.698101 -0.467750 1.406944 -0.074214 0.852166 0.583612 0.619790 0.998179
boolean -0.149715 -1.052193 -0.478478 0.694860 0.455324 -0.372727 -0.631782 -0.273269 0.085589 -0.089617 -0.805508 0.684126 0.122684 -0.094775 1.032918 0.657296 -0.547244 -0.048447 -0.329839 0.078032 -0.628429 -0.165063 1.046629 -0.786454 -0.467800 -0.225979 -0.926916 0.589632 0.585762 -0.935004 0.473579 0.205162 0.481065 -0.348391 0.600940 0.096770 0.313112 0.965656 -1.055064 0.321640 0.124144 0.206461 -1.293749 0.735492 0.745338 0.772781 -0.557245 2.455111 0.548367 0.385277
specific -0.294787 0.191474 0.369620 0.362234 0.682139 0.688022 0.197410 -0.117124 -0.353388 -0.292797 1.222277 -0.038068 0.607685 -0.978433 0.557477 -0.047680 -0.077001 0.131024 -0.615905 -0.575764 -0.178125 1.055424 -0.106431 -1.264861 0.234443 -0.539075 -0.723104 -0.034521 0.325905 -0.236581 -0.239669 0.539531 -1.232987 -0.269130 0.078107 -0.291739 -0.473856 0.113917 -0.532260 0.619596 0.110452 0.236554 -0.304389 0.300286 0.101393 -0.259358 0.358304 -0.286819 1.117914 0.038347
various 0.674984 0.376535 -0.405720 0.203437 0.670197 0.726733 -0.231883 -0.706120 0.189008 -0.276988 1.064233 -0.782827 0.087835 -0.405372 0.765638 0.040491 -0.263597 0.219321 -0.659755 -0.170249 -0.000785 0.895164 0.090337 -0.448117 0.240857 -0.305020 -0.916008 -0.328487 0.249240 0.505355 0.750413 0.084236 -0.840574 -0.304495 -0.563518 0.051809 -0.562151 -0.358429 -0.720810 0.280436 -0.061399 -0.031164 0.252618 0.345109 0.861108 -0.109310 0.909001 -0.273873 0.767272 -0.276716
intelligence -0.714613 0.229045 -1.107666 0.789252 -0.578253 -0.177890 -0.186010 -0.035901 -0.068424 -0.254624 0.867230 1.080914 -0.356766 -0.711533 0.523249 0.365243 0.868389 -0.498678 0.400764 -0.507633 -0.481102 -0.570213 0.614545 0.367379 0.138815 -0.220062 0.204590 0.210331 0.076152 0.953777 -0.091993 -0.394623 -1.653036 -0.481711 -0.481160 -0.600617 0.532867 -0.143194 -0.455551 -0.699257 0.316765 -0.352171 -0.282165 0.341946 0.240721 0.281985 1.300930 0.880571 -0.929967 0.709813
some -0.172308 0.288169 -0.191983 0.483419 0.864309 0.040837 0.496289 0.054510 0.907782 0.415307 1.143475 -0.246531 0.615828 -0.154813 -0.149661 -0.650577 -0.391369 -0.076318 -0.842646 -0.562460 0.274134 0.066036 -0.334511 -0.493570 -0.200940 -1.286534 -0.151787 -0.379174 0.352214 0.313515 0.574391 0.366810 -0.409364 -0.341699 -0.498969 1.005127 -0.412670 -0.292632 -0.762702 0.307910 -0.051532 -0.301460 0.819579 0.475391 1.834975 -0.033523 0.701002 -0.410169 -0.352043 -0.114078
terms 0.192716 -0.096080 0.173353 0.371709 0.747601 -0.322902 0.485513 -0.411042 -0.665822 0.191356 0.644604 0.440378 0.396870 -0.858897 1.411358 -0.174520 -0.172840 0.039184 -0.570357 -0.488639 -0.504452 -0.140680 0.506580 0.369503 -0.519057 -1.372092 -0.444578 -0.241374 -0.042321 -0.487498 0.227041 0.343884 0.600410 -0.203387 0.468734 0.215545 -0.478612 0.267596 -0.476269 -0.004181 -0.030216 -0.065153 0.321516 0.342467 0.913367 0.207957 0.037069 0.467652 1.497245 -0.274569
graph 0.277381 0.599568 1.047252 -0.496070 0.539177 0.307654 -0.234397 0.378056 0.541593 0.836905 -0.837883 0.248501 0.522064 0.014117 -0.004941 -1.091618 -0.002620 1.079425 -0.053712 -1.129408 0.704762 -0.471887 -0.361952 0.133460 0.454171 -1.561049 -0.506238 0.988222 0.383692 0.359132 -0.146658 1.342073 -1.705003 -0.820540 0.376004 -0.500241 0.727535 -0.144061 0.628448 -0.223587 0.269572 1.059653 -0.529462 0.251205 0.696826 -0.191536 -0.745000 0.071504 0.694384 1.077293
digital 0.527581 0.024649 -0.058751 0.023082 -0.518309 -0.343683 0.543486 -0.093994 0.790585 -0.506879 -0.212342 -0.284700 0.877042 -1.301380 0.641389 0.747650 0.879399 0.644643 0.074988 -0.023565 -0.376554 0.190875 -0.787858 -0.924081 0.046010 -0.280090 0.253996 -0.503416 0.111907 0.258068 1.096019 0.176782 0.737715 -1.049447 -0.245845 -0.458111 0.393431 0.700196 -1.307930 -0.336561 -1.910455 0.273366 0.478684 -0.093319 0.299680 0.303291 0.880137 0.593130 -0.317299 -0.337179
following 0.671528 -0.892675 -0.406533 0.543644 0.864302 -0.262829 -0.238885 0.353203 -0.414511 -0.577091 0.895091 0.723370 -0.680968 -0.438733 -0.191702 -0.263227 0.054770 -0.363282 0.045790 -0.335685 -0.268412 0.238806 0.131056 0.013287 0.944148 -1.598973 -0.699661 0.383231 -0.007518 -0.541101 0.619473 -0.111516 0.165525 -0.092916 0.183901 0.257399 -0.546961 -0.289326 0.010175 1.010301 0.242670 -0.185706 0.617861 1.198492 1.340149 0.392468 0.344184 0.098628 0.725177 0.434546
graphics 0.243667 0.485152 -0.069361 -0.564622 -1.485558 0.310928 -0.340977 0.791436 0.495428 -0.163961 0.398355 -0.078344 0.815819 -1.422538 -0.646783 0.654228 0.661937 0.869193 -0.270501 0.776799 0.845692 0.026697 -1.000334 0.098848 0.000049 -1.040690 0.182292 -0.946547 -0.041644 0.765874 0.732459 0.438108 -0.137469 -0.807750 -1.301868 0.370999 1.276880 0.580806 -0.790541 0.116420 -0.962761 -0.960733 -0.401071 -0.073847 -0.354095 0.237250 0.241889 -0.193770 -0.354469 -1.106303
j -0.118993 0.247598 -0.071366 -0.421673 -0.509997 -1.972826 -0.097784 0.825159 -0.365611 0.427794 0.105634 0.363370 -1.065914 -0.964167 -0.119457 1.224812 0.062433 -1.048061 0.526930 -0.802655 0.455365 -0.210445 0.028264 0.085075 -0.203030 -0.762724 -0.012695 -1.294546 0.315879 0.600189 -0.779952 -0.059727 -0.102282 -0.447959 -1.088099 0.031236 0.933314 0.431297 -0.713636 -0.720870 1.206225 0.564761 -0.298402 0.742032 0.135796 0.515932 -0.695844 0.042423 -0.022028 1.381261
variables -0.531583 -1.550769 0.199501 0.658785 0.211511 0.780139 0.995411 0.170010 -0.782687 -0.411517 0.195199 -0.767773 0.926073 0.425407 -0.835302 0.476347 0.162408 -0.170749 -0.808333 -0.946754 0.354673 -0.417506 -0.476761 -0.309056 -1.112468 -0.914051 -2.138238 -0.207764 0.073632 -1.281928 0.763821 -0.722617 -0.635622 0.362800 -0.425593 -0.130507 -0.743946 0.465662 -0.961032 -0.312721 -0.088172 0.021644 -0.121706 -0.138012 0.067851 0.035980 -0.068432 1.148759 0.919293 -0.509449
generally -0.052226 0.278053 -0.348658 0.112595 0.923655 -0.764620 0.029587 -0.644239 0.256706 0.199429 0.661341 -0.565231 1.040336 -0.169897 -0.107085 0.283696 -0.861158 0.296761 -0.489174 -0.979254 -0.262507 0.666232 -0.401152 0.055706 0.624204 -1.175367 0.025089 0.021692 -0.198975 0.165393 -0.413648 0.191128 0.101847 -1.197158 -0.076585 0.244959 -0.287457 0.155829 -0.923965 0.663493 -0.674396 -0.334045 -0.073161 -0.146703 0.405890 -0.243266 0.367213 -0.489644 0.245865 -0.733865
important -0.039841 0.067077 0.120693 -0.526202 0.364167 -0.001636 0.859025 0.415221 0.893740 0.701012 0.163519 0.741212 0.247391 0.011947 0.024555 0.218525 0.439229 0.261676 0.176718 -0.296311 -0.309119 -0.138874 -1.027771 0.296212 0.778844 -1.120936 -0.433586 0.612491 -0.075693 -0.680984 0.097144 0.013127 0.024367 -1.573473 -1.919656 -0.510738 -0.351792 0.081451 -0.127233 0.644796 -0.192250 -0.492918 0.164001 0.135997 1.057751 -0.192390 0.204785 0.078814 0.267004 0.357744
support 0.730280 -0.188250 -0.848104 0.488270 -0.014253 0.161378 1.139848 0.359875 0.806705 0.692475 1.732546 0.341769 0.586098 -0.120127 -0.620878 0.366869 0.015114 -0.465039 -0.514392 -0.728686 0.015914 0.263395 -1.423443 0.037586 -0.668814 0.106693 -0.009037 -0.792777 0.383040 -0.434280 0.847788 0.570244 0.384930 -0.067964 0.329683 0.198253 -0.033294 -0.658117 -0.363046 0.185820 0.101698 -0.739294 -0.178368 1.411323 0.653076 -1.043798 0.054484 -0.111534 0.243173 -0.008817
technology 0.988967 0.107595 -0.485172 0.559687 -0.528396 -0.576836 0.045321 0.245250 1.237273 -0.454142 -0.260110 -0.757318 0.285060 0.020084 -0.097004 0.710280 0.180302 -0.353989 -0.265377 -0.377591 -0.099928 0.676194 0.168408 -0.207556 1.013712 -0.737812 0.735143 -1.340019 0.316886 0.938058 0.256181 -0.420978 -0.440134 -0.639672 -1.224877 -0.804354 -0.147534 -0.049145 -1.103675 -0.082626 -0.328584 -0.197548 -0.256579 0.537515 -0.424478 -0.133090 1.534511 -0.117269 0.074589 0.349725
thus 0.185689 -0.554568 0.149698 0.281249 0.520507 -0.784113 -0.019413 0.367703 -0.014626 0.329815 0.567323 -0.156098 -0.086782 -0.406328 -0.223065 0.501490 0.451596 0.093919 0.131750 -0.181896 -0.381715 -0.201891 0.114705 -0.032756 -0.469416 -0.198183 -0.044277 0.226400 -0.060109 -0.229645 0.193881 0.369969 -0.147399 -0.727180 -0.009803 -0.189182 0.201210 0.235076 0.032338 0.112457 0.118115 0.039416 0.147637 0.577992 0.813291 -0.450373 -0.382131 0.238856 1.164048 0.405487
functional 0.255720 0.458257 -1.052491 0.423656 0.083012 0.520181 0.372377 -0.138013 -0.420817 0.888262 1.101107 0.803513 0.631165 -0.097276 -0.130154 1.562781 0.119668 -0.855819 -0.234388 -1.136756 0.115502 -0.419303 -0.222649 0.343548 -0.523014 -0.014569 -0.384673 -0.319258 0.429466 -0.242107 -0.228579 -0.765574 -0.708344 -0.699041 -0.457244 1.261650 -0.868759 -0.086466 0.415254 0.610899 -1.000134 0.698141 -0.047845 -0.332248 1.283458 -0.782734 -0.651129 -0.386372 0.704265 0.241112
implementation -0.080022 0.475431 0.390528 0.416510 -0.009959 -0.093651 -0.191815 0.235268 0.806942 -0.291576 0.999943 0.785703 1.162779 0.513968 0.554272 0.784490 0.111321 -0.770320 -0.207761 -0.556809 0.053097 0.695651 -0.350400 0.225014 -0.127045 -0.251999 -0.025065 -0.158924 0.166128 -1.432719 0.458129 0.087463 0.390883 -0.271824 0.296481 -0.663001 0.080762 -0.051316 -1.091374 0.975931 -0.449955 -0.625333 -0.144612 -0.146760 1.035921 0.164185 -0.031860 -0.193051 1.117855 0.530380
uses 0.637232 -0.855268 0.808943 0.232548 -0.099465 0.133293 -0.217487 0.039174 0.412813 0.400508 0.669483 0.301809 -0.211312 -0.536418 1.021506 -0.113003 1.060118 -0.198662 -0.214456 -1.048225 -0.484479 0.360945 -0.188594 -0.263863 0.387277 -0.203420 -0.384759 -0.068143 -0.099749 0.259956 0.433922 -0.083684 -0.510289 -0.063349 -0.372724 -0.612331 -0.458426 0.079427 -0.345623 0.389663 -0.271109 0.025790 0.162286 0.710080 0.643625 0.088255 -0.273792 -0.614548 1.012016 0.315111
networks 0.161921 0.067372 -0.579105 -0.586263 0.570475 -0.321137 0.480487 0.361916 0.705214 0.060900 0.037406 -0.135311 -0.157387 0.431975 1.222161 1.674074 1.925978 0.209741 -0.201893 -0.112222 -0.390529 0.082357 -0.560590 0.395813 -0.144157 -0.610427 0.184949 0.112725 0.695498 0.679027 0.799459 -0.646650 -0.741044 -0.366644 -0.697779 -0.693557 0.726966 -0.699937 -0.111577 -0.401186 0.197114 0.542399 -1.303720 1.343901 -0.021296 0.289085 0.401163 -0.242219 0.506544 -0.831188
if -0.289664 -0.934865 0.431585 0.156341 0.160439 -0.135513 -0.923336 0.549708 -0.134211 -0.702194 0.401670 -0.770409 -0.605821 0.164585 -0.343309 0.154676 0.131681 -0.250169 -0.023204 -0.631185 0.300175 -0.329355 -0.092465 0.296618 -0.286534 -1.115438 -0.754848 0.365725 0.203571 -0.333672 -0.877622 0.367244 -0.222663 -1.105351 -0.489074 -0.374913 0.010983 -0.270651 -0.332192 -0.045953 0.274346 0.014191 -0.115524 -0.435217 0.566727 -0.049221 -0.362381 0.165744 1.329066 0.140898
part -0.058438 -0.010931 -0.549061 -0.697052 -0.370402 0.290509 0.279530 -0.057690 -0.252945 0.209291 0.708473 -0.278548 0.762249 -0.672247 -0.405938 0.239093 -0.081174 0.617077 0.250983 -0.359055 -0.206896 0.031786 -0.314026 0.927202 0.480144 -0.528229 -0.268551 0.132717 0.424173 -0.368663 -0.442652 0.713353 -0.484503 -1.710433 -0.497214 -0.408929 0.838648 0.091152 0.229305 0.786469 -0.185288 -0.590811 -0.273778 -0.210609 0.923387 -0.077107 0.493870 -0.456728 0.817311 0.303022
related 0.547776 0.337602 0.404696 -0.048169 0.718334 0.293199 0.656530 -0.679573 -0.615292 1.440245 0.252700 -0.124463 0.340787 -0.057446 0.780264 0.168321 0.582431 0.106027 -0.237089 -0.985058 0.373968 0.749861 0.320888 -0.237060 0.414217 -0.397325 -0.236964 -0.550649 0.084710 -0.254606 0.764239 0.425240 -1.488630 -0.787399 -0.383166 0.209651 -0.852448 0.334101 -0.820593 0.229028 0.715712 0.085672 -0.279267 0.378591 0.625044 -0.051982 0.036558 -0.547673 -0.085172 0.109581
world -0.152037 -0.359569 -1.056930 -0.568878 0.346175 0.064713 -1.216873 -0.011666 -1.696918 0.701270 0.223900 0.641433 0.718746 -1.276748 0.342004 0.661370 0.500977 -0.289218 -0.675417 -0.271209 -0.050464 -0.593305 0.222393 1.349054 0.254898 0.177506 0.376390 0.149832 0.098874 0.976057 0.647319 0.235151 0.228405 -1.246931 -0.837090 -1.507591 0.152565 0.545227 -0.400304 0.515761 -0.197817 -0.192245 -0.183818 0.223334 0.745769 -0.539766 1.033172 -0.004988 0.100754 -0.416521
d -0.404980 0.332093 0.000900 -0.342116 -0.665186 -0.735109 -1.001621 1.541116 -0.265315 -0.133779 0.192335 -0.473134 0.031774 -1.130157 -0.811924 1.038264 0.285570 0.263759 -0.579500 -0.471977 0.950079 -0.098678 -0.964516 0.812941 0.159021 -0.665058 -0.272749 -0.771707 0.273909 0.937667 0.543750 -0.148508 0.522580 0.039860 -1.202671 -0.261470 1.163664 0.579977 -1.152873 -0.509001 -0.934230 -0.200873 -0.796687 0.180650 0.022373 0.668996 -0.205044 -0.612656 0.295065 0.154765
level 0.876912 0.604399 0.108115 -0.701738 -0.130213 0.204955 -0.441763 -0.645125 -0.223958 -0.646528 1.466551 0.413140 -0.430235 0.816694 0.101347 -1.063022 0.218998 0.217028 -0.981645 -1.131100 0.120846 -0.189676 -0.777827 0.065745 0.648990 0.537452 0.491981 -0.572996 -0.737524 -0.937429 0.700848 0.549667 -0.146764 -1.234476 1.162405 -0.130911 0.723284 -0.031457 -0.894631 0.694445 -0.190274 0.580461 -0.438337 -1.043873 0.594377 -0.321388 0.424532 -0.398973 1.877121 -0.273446
classes -0.084897 0.351012 0.592506 0.974623 0.306315 0.233553 1.203710 0.046143 0.448907 0.157973 0.475825 0.511046 -0.716117 -0.089108 -0.018516 -0.551241 -0.908725 0.062661 -0.063125 -0.394266 0.294202 -0.336925 -1.088810 0.413753 -1.735523 -1.419800 -0.462536 -0.677114 0.570661 -0.549325 0.855550 0.569626 0.641124 0.043918 -0.105663 -0.531544 0.188013 -0.934849 -1.688576 1.197898 -0.465907 0.151314 0.178697 0.867891 0.909988 -0.290316 -0.331629 0.358690 0.818944 -0.010916
list 1.172574 -0.739034 0.061564 -0.119019 0.560941 -0.622053 -0.398320 -0.451881 -0.852826 0.010212 0.301093 -0.495273 0.337345 0.651260 0.357880 -0.124029 -0.434958 -0.134812 0.083001 -1.493995 -0.258522 -0.389413 -0.500965 0.180837 0.633466 -2.191370 0.316164 -0.446651 -0.446284 -0.806871 0.017898 0.403653 -1.044398 0.144727 0.281719 -0.096979 -1.243759 1.072165 0.150489 0.524300 0.775250 -0.020037 0.061423 -0.123515 0.378868 -0.623563 0.094123 1.067096 -0.337064 0.678249
protein 0.147502 0.050989 0.494860 -0.743853 0.495843 0.885161 0.257912 0.577555 -0.299844 -0.233023 -0.700745 -0.014141 0.957965 0.846289 -0.453647 1.606480 -0.393668 -0.009744 -0.028709 0.310779 -0.116425 -0.357389 -1.692388 0.655186 0.320074 -0.694835 -0.058977 0.727085 -0.858238 0.226580 0.940988 -0.369911 -1.228250 0.350527 -0.871150 0.542887 0.223900 -0.461320 0.948619 -0.671330 0.538520 -0.623754 0.182886 0.136633 0.540026 -0.472289 0.222216 -0.302953 1.024331 0.456307
as 0.008065 -0.373500 -0.289133 0.605599 -0.066821 0.000351 -0.233571 0.094496 -0.302660 -0.056945 0.378339 -0.126833 0.334139 -0.722974 0.191818 -0.005283 0.362451 0.250879 -0.303368 0.202467 -0.137741 -0.101537 -0.322803 -0.250921 0.798532 -1.359292 -0.288316 -0.439232 0.385710 0.008126 0.010162 -0.023248 0.215468 -0.427367 -0.364991 0.227613 -0.343628 0.454562 -0.623264 0.579427 -0.168693 0.182775 -0.758760 0.071775 0.426383 -0.101021 0.859012 0.470949 0.720384 0.210309
parallel 0.280073 -0.825642 0.318154 -0.440760 0.245902 -0.525376 0.544116 0.335793 1.146615 -0.454078 1.998468 -0.222473 1.209116 0.208558 0.476600 -0.609200 0.189137 0.889554 0.183148 -0.277053 -0.363126 0.255562 -0.353971 0.318885 -0.062414 -1.199505 -1.156954 -1.222142 0.535102 0.844539 0.045562 -0.410549 -0.765119 -0.972256 -0.071918 0.440728 0.170875 0.086080 0.153386 0.697335 -0.324891 1.494529 -0.140434 0.029494 -0.209829 0.266502 -0.102494 -0.427794 -0.372768 0.139774
every -0.418605 -1.034612 -0.218686 0.231723 -0.042777 0.400377 -0.480982 -0.262516 -0.198870 -0.876057 -0.215449 -0.004399 0.099201 0.321240 -0.153299 -0.525271 -0.176975 -0.197712 0.017000 0.346151 0.120239 -0.401113 0.241339 -0.532934 -0.088405 -0.953652 -0.154952 0.554832 0.163286 -1.190211 0.779048 0.742715 0.168747 -0.712873 -0.148129 -0.603473 0.262473 0.776150 -1.070637 -0.215881 0.182665 0.254428 -0.666540 0.100142 0.913491 -0.439998 -0.775387 1.081745 1.398218 1.164555
user 0.089026 0.462611 -0.146254 0.219223 0.767532 0.644522 0.835472 0.456535 -0.468958 -1.359612 1.035584 0.243010 0.385870 -1.010949 0.241749 0.135245 -0.143612 -1.454117 -0.213932 0.232947 -0.691488 0.825499 -1.126557 -0.404680 -0.522005 -0.138717 0.306550 0.604936 0.379242 -0.671683 -0.618641 -0.024027 -0.552499 -1.959620 0.029861 0.099775 -0.395762 -0.256359 -0.468622 -0.473119 -0.630348 0.276734 -1.008039 -0.171887 -0.189393 -0.737955 0.012033 -0.384457 0.650416 -0.225757
definition -0.479106 -0.333730 -0.553958 -0.129059 0.588464 -0.032685 -0.467314 -0.881499 -0.341519 0.544793 -0.070286 0.486333 -0.519439 -0.441562 0.780714 -0.447504 0.470239 -1.289601 -0.316678 -0.860283 -0.576844 -0.148419 0.254999 -0.167879 0.514144 -1.795189 -0.748136 -0.188520 0.221546 0.126495 0.277812 0.351421 0.424033 0.556364 0.659775 -0.015174 -0.487463 -0.616822 -0.185373 -0.597832 -0.266454 -0.312148 -0.915295 0.305418 0.907001 0.505447 0.194084 0.945924 0.632400 0.826962
l 0.016892 0.271025 -0.249586 -0.324548 -0.532147 -1.120259 -1.142790 0.151591 0.739697 0.729523 -0.369239 -0.971886 -0.149127 -0.472339 -0.180850 0.258122 -0.040575 -0.780296 -0.512693 -0.089338 1.230394 0.048653 -0.013984 -0.090197 0.030384 -0.902328 0.450916 -0.849881 0.314181 -1.174736 -1.201551 0.390623 -0.374059 -0.998531 -1.509247 0.068236 1.179257 -0.141258 -0.379362 0.116080 0.199467 0.390904 0.816271 -0.753136 -0.162026 0.466309 -0.793712 0.098123 1.276867 0.492164
object-oriented 0.088185 0.014704 -1.204010 0.798639 -0.291473 0.094815 0.116569 0.545832 0.955077 0.888399 0.570812 0.996674 0.590441 -0.659527 -1.027733 0.589302 0.337856 -0.617690 0.524206 -0.703263 0.217859 0.251640 -0.001881 1.031288 0.078933 0.132605 0.042973 -0.944385 1.019248 -0.688651 0.879366 0.102642 -0.240987 -0.317251 -0.022361 -0.579224 0.296700 -0.303327 -0.118133 1.314061 -0.578754 0.203447 0.426754 0.515165 1.039661 -0.674233 0.062892 -1.230132 0.235521 0.509717
original -0.615337 -0.766538 -0.592871 0.648737 -1.123547 0.168058 -0.732016 0.119578 0.634997 -0.857393 0.209938 1.151977 -0.430749 -0.767163 -0.768032 0.148854 -0.233637 -0.387566 0.283114 -1.095448 -0.515751 0.439803 -0.398130 0.123729 0.655465 0.144144 0.573246 -0.040009 0.900786 0.639611 -0.071728 0.222350 -0.960967 0.858741 0.297148 -0.654422 1.130292 -0.265794 -0.723653 -1.793080 -0.112058 0.428601 -0.032558 0.955884 0.539007 -0.071593 1.648819 0.846206 0.411440 0.586596
error -0.395013 -0.772184 1.021013 0.358261 0.014664 0.342001 -0.576396 -1.273578 0.558090 -0.179366 -0.247821 -0.448897 -0.830633 0.373032 -0.573579 0.677441 0.071870 0.228138 -0.695223 -1.020384 -0.565078 -0.027430 -0.893658 -0.120100 0.663441 0.011968 -0.968286 0.384413 0.017137 0.919295 -1.153619 0.951541 0.380642 0.403271 -0.744212 -0.486189 -0.247800 1.147463 -0.343113 -1.477503 -0.530421 -0.143461 0.155366 0.285975 1.082584 0.095456 -0.071394 -0.961261 0.451378 -0.723976
knowledge 0.242455 0.533595 0.091628 0.976335 -0.173862 1.335414 -0.622695 -1.104927 -0.880639 0.025889 0.156732 -0.442242 0.368181 -1.073612 0.461390 0.410682 0.522657 -0.062495 0.268522 -0.435822 -0.351675 0.534539 0.316798 -0.360233 -0.707685 0.599462 -0.701753 -0.720577 -0.085723 0.588551 -0.865584 -0.016959 -0.690956 -0.296901 -0.198683 -0.886180 -0.691388 0.408340 -0.625210 0.628498 0.231105 -0.845729 -0.700071 -0.275508 0.258988 0.187811 1.137431 -0.326764 1.055682 0.919269
array 1.389880 -1.528124 -0.144266 -0.773262 0.139407 -1.200584 -0.035780 0.692296 0.027130 0.103621 -0.646388 -0.676043 -0.474351 0.393699 -0.017662 1.369164 0.148881 0.166614 -0.388638 -0.752991 -0.717702 -0.486248 -0.628953 -0.219773 -0.057867 -0.255316 0.444887 0.175487 -1.135492 -0.754032 -0.010957 0.167684 -0.864309 0.109734 -0.156415 0.503540 -0.138089 1.263470 -0.588709 0.127311 -0.284526 -0.713635 0.305661 0.216680 0.849077 -1.684131 -0.765484 -0.526292 0.522701 -0.464753
artificial -0.655736 -0.179118 -1.370849 0.556310 -0.619397 -0.230568 0.054060 -0.170716 0.297854 0.038837 0.603350 1.473356 -0.135513 -0.447394 0.588324 0.945038 1.200278 -0.654219 0.385651 -0.383806 -0.277406 -0.405163 0.681565 0.260145 0.068114 -0.201285 0.343757 0.073166 0.017411 0.997214 -0.182914 -0.267767 -1.673457 -0.148691 -0.384811 -0.360621 0.591416 -0.134118 -0.611385 -0.881278 0.297523 -0.389391 -0.556082 0.548902 0.245607 0.322679 1.294570 0.849061 -0.488975 0.649635
considered -0.117531 0.231275 -0.380740 0.144658 0.167475 -0.331315 0.021350 -0.649916 -0.077228 1.059132 0.659066 -0.271316 1.390214 -0.556626 -0.212191 0.836980 -0.068721 0.262753 0.053955 -0.559259 -0.680977 -0.455240 0.619688 0.705730 0.312954 -0.949821 0.484484 -0.270247 -0.385214 -0.003678 -0.045033 0.041672 -0.231990 -1.291560 0.352073 -0.074249 -0.198612 0.117273 -1.031893 0.266086 -0.154315 -0.162517 -0.581816 0.309295 0.452931 -0.139826 0.334481 -0.165433 -0.049632 -0.071667
machines -0.016476 0.050483 -0.170345 -0.250321 0.592560 -0.172167 -0.162242 0.461159 -0.096196 0.190099 0.886984 1.209108 -0.484611 -0.275931 0.787435 -0.495609 0.468726 -0.343611 -0.137023 0.268171 -0.245627 -0.145513 -0.130454 0.304299 -0.869460 -0.805400 -0.323451 -0.284960 -0.638963 0.793195 0.676071 0.216631 0.049074 -0.547483 0.733797 -1.075232 0.379530 -0.474530 -1.793649 0.039471 -0.847079 0.264633 -0.532352 -0.036463 1.107471 0.671901 1.442883 0.953983 -0.460071 -0.081892
